svm_type c_svc
kernel_type rbf
gamma 0.030303
nr_class 7
total_sv 7871
rho -0.867694 -0.729836 -1.08811 -0.87654 -0.871498 -0.866372 0.688609 0.797673 -0.41328 -0.40035 -0.328911 -0.297668 -0.706039 -0.702027 -0.709568 -0.828849 -0.802316 -0.79769 0.00518784 -0.0292781 0.00508964
label 5 0 6 4 1 2 3
probA -10.3144 -18.1448 -5.55606 -10.5491 -10.5149 -10.3979 -3.05212 -7.7824 -6.24494 -6.39643 -4.51889 -8.69489 -2.95996 -3.19084 -3.03796 -7.97725 -7.85409 -7.7853 -4.87912 -6.10861 -7.00895
probB -2.9369 6.19127 0.664039 -3.60865 -3.62108 -3.78121 0.0100027 0.16856 -0.0666603 1.43063 0.280054 1.38269 -0.107503 -0.314926 -0.204566 -0.874666 -1.13688 -1.13458 0.565967 1.49986 2.19356e-05
nr_sv 1881 678 2362 1274 714 484 478
SV
0 0 1 0 0 0 10:1 11:1 22:1 
0 0 0 0 0 0.003949255130880256 4:1 10:60 14:1 17:1 
0 0 1 0 0 0 2:0.77777778 10:18 12:1 22:1 
0 0.03269755222471055 0 0 0 0 4:1 10:54 14:1 22:1 
0 0.2399298465312077 0 0.0133970964298741 0.007762972244872753 0.007690960188124528 1:1 10:50 11:1 20:1 
0 0 1 0 0 0 10:4 12:1 22:1 
0.2506832860360547 0.03495873142586969 0 0 0.5559848244989487 0.6149273555071078 10:7 13:1 20:1 
0 0 1 0 0 0 2:0.6 5:0.4 10:5 12:1 17:1 
0 0 1 0 0 0 2:0.5 10:2 12:1 22:1 
0 0 0 0 0.05806091832432787 0 3:0.076923077 10:13 13:1 20:1 
0 0 1 0 0 0 1:0.47058824 10:17 11:1 23:1 
0 0 1 0 0 0 5:1 10:6 12:1 18:1 
0 0.7494560435231403 0 0 0 0 1:1 10:94 11:1 17:1 
0 0 1 0 0 0 2:0.7 5:0.3 10:20 12:1 19:1 
0 0 1 0 0 0 2:0.33333333 5:0.66666667 10:18 12:1 20:1 
0 0 0 0 0 0.01594156051833315 4:1 10:31 14:1 18:1 
0.01645187266497669 0 1 0.1351431351171209 0.0689152874125219 0 4:0.63636364 10:11 14:1 22:1 
0 0 1 0 0 0 5:0.2 10:10 14:1 17:1 
0 0 1 0 0 0 3:0.076923077 10:13 13:1 22:1 
0.0526308085151317 0 0 0.03239270737863814 0 0.03228889051386713 2:1 10:3 12:1 28:1 
0 0 1 0 0 0 2:0.5 10:2 12:1 22:1 
0 0 1 0 0 0 1:0.15 5:0.85 10:20 11:1 18:1 
0 0 1 0 0 0 1:0.28571429 5:0.71428571 10:7 11:1 18:1 
0 0.4820447480596557 0 0 0.01159242636648306 0 4:1 10:58 14:1 19:1 
0 0 1 0 0 0 3:1 10:1 13:1 25:1 
0 0 1 0 0 0 1:0.4 10:5 11:1 24:1 
0 0 1 0 0 0 10:19 12:1 20:1 
0 0 1 0 0 0 4:1 10:15 14:1 23:1 
0 0 1 0 0 0 3:0.5625 5:0.4375 10:16 13:1 17:1 
0 0 1 0 0 0 1:0.1 5:0.9 10:20 11:1 17:1 
0 0 1 0 0 0 10:20 12:1 22:1 
0 0 1 0 0 0 1:0.94736842 5:0.052631579 10:19 11:1 25:1 
0 0 1 0 0 0 1:0.65 5:0.35 10:20 11:1 18:1 
0 0 1 0 0 0 3:0.44444444 5:0.55555556 10:18 13:1 17:1 
0 0 1 0 0 0 3:0.61111111 5:0.38888889 10:18 13:1 17:1 
0 0 1 0 0 0 2:0.42857143 5:0.57142857 10:7 12:1 18:1 
0 0 1 0 0 0 2:0.8 10:15 12:1 22:1 
0 0 1 0 0 0 4:0.35714286 5:0.64285714 10:14 14:1 18:1 
0 0 1 0 0 0 5:1 10:1 14:1 18:1 
0 0 1 0 0 0 3:0.64705882 10:17 13:1 22:1 
0.1139298177015785 0.0803607470897795 1 0.5442989703386185 0 0 10:2 12:1 24:1 
0 0 1 0 0 0 1:1 10:11 11:1 24:1 
0 0.001508360687496241 1 0 0 0 2:0.30769231 10:13 12:1 22:1 
0 0 1 0 0 0 2:0.94117647 10:17 12:1 24:1 
0 0 1 0 0 0 4:1 10:17 14:1 23:1 
0.04952578167267722 0 1 0.7478693149487201 0 0 10:3 12:1 21:1 
0.03252350015873949 0.5607272167541494 0 0 0 0 4:1 10:27 14:1 19:1 
0 0 1 0 0 0 2:0.3 5:0.7 10:10 12:1 21:1 
0 0 1 0 0 0 2:0.052631579 5:0.94736842 10:19 12:1 17:1 
0 0.3174767915103729 0 0 0 0 1:1 10:96 11:1 19:1 
0 0 1 0 0 0 10:5 12:1 19:1 
0 0 1 0 0 0 1:1 10:11 11:1 23:1 
0.01905996081120239 0.5267661177741346 0 0.008738259022302412 0 0 3:1 10:93 13:1 18:1 
0 0 1 0 0 0 3:0.57142857 5:0.42857143 10:14 13:1 17:1 
0 0 1 0 0 0 4:1 10:16 14:1 24:1 
0 0 1 0 0 0 1:0.11764706 5:0.88235294 10:17 11:1 17:1 
0 0 0.9786600982647768 0 0 0 2:0.45 10:20 12:1 22:1 
0.1333311576847963 1 1 0 0 0 1:0.12 10:25 11:1 17:1 
0 0 0 0 0 0.006707901579724217 1:1 10:44 11:1 18:1 
0.1041970633070848 0 0 0 0 0 10:2 11:1 20:1 
0 0 1 0.03295383378345018 0.4760921982133163 0.4559480728568592 10:5 11:1 22:1 
0 0 0 0 0 0.03019762574340847 2:1 10:23 12:1 23:1 
0 0 1 0 0 0 2:0.94736842 5:0.052631579 10:19 12:1 23:1 
0 0 1 0 0 0 1:0.66666667 5:0.33333333 10:3 11:1 17:1 
0 0 0 0.4089836742443423 0 0.08655689790214356 1:0.38095238 10:21 11:1 21:1 
0 0 1 0 0 0 2:0.25 5:0.75 10:16 12:1 19:1 
0 0 1 0 0 0 1:0.8 5:0.2 10:20 11:1 19:1 
0 0 1 0 0 0 1:0.9375 10:16 11:1 22:1 
0 0 1 0 0 0 1:0.05 5:0.95 10:20 11:1 17:1 
0 1 0 0 0 0 1:0.99009901 10:101 11:1 18:1 
0 0 1 0 0 0 10:6 12:1 19:1 
0.09046359389483369 0.07830191352679272 1 0.08282812284135511 0.06379079929431196 0.2515870772420544 2:0.071428571 10:14 12:1 29:1 
0 0 1 0 0 0 4:0.68421053 5:0.31578947 10:19 14:1 19:1 
0 0 1 0 0 0 4:0.2 5:0.65 10:20 14:1 17:1 
0 0 1 0 0 0 1:0.3 5:0.7 10:20 11:1 17:1 
0.2545881851072276 0.0845576787383452 0 0 0 0.1898462855261844 10:8 14:1 19:1 
0 0 0.6384322629295657 0 0 0 2:0.96153846 10:26 12:1 17:1 
0 0 0 0 0 0.008745631912808225 2:1 10:30 12:1 20:1 
0 0.08969141643397699 0.684116599950422 0 0.01152779320510284 0.009487695228893615 1:1 10:25 11:1 23:1 
0 0 1 0 0 0 10:20 11:1 22:1 
0 0 1 0.1388592413259405 0 0 10:19 13:1 20:1 
0 0 1 0 0 0 5:1 10:3 11:1 17:1 
0 0 1 0 0 0 10:20 12:1 22:1 
0 0 1 0 0 0 2:0.58823529 10:17 12:1 22:1 
0 0 1 0 0 0 1:0.77777778 10:18 11:1 22:1 
0 1 0 0 0 0 4:1 10:101 14:1 17:1 
0 0 1 0 0 0 2:0.41176471 5:0.41176471 10:17 12:1 17:1 
0 0 1 0 0 0 5:1 10:1 14:1 17:1 
0 0 0.297428292906296 0 0 0 4:0.72727273 5:0.27272727 10:11 14:1 18:1 
0 0 1 0 0 0 10:17 12:1 20:1 
0 0 1 0 0 0 3:0.41176471 5:0.58823529 10:17 13:1 17:1 
0 0 1 0 0 0 5:0.5 10:2 12:1 17:1 
0 0 1 0 0 0 1:0.7 5:0.3 10:20 11:1 18:1 
0 1 0 0 0 0 4:1 10:93 14:1 20:1 
0 0 1 0 0 0 2:0.85 5:0.15 10:20 12:1 22:1 
0.1376187638311695 0.03911944801665266 1 0.1233567757231767 0.1920876954868838 0.1472031716553275 10:10 11:1 31:1 
0 0 1 0 0 0 3:1 10:4 13:1 24:1 
0 0 1 0 0 0 5:1 10:5 12:1 18:1 
0 0 1 0 0 0 3:0.83333333 5:0.16666667 10:18 13:1 19:1 
0 0 1 0 0 0 2:0.52941176 10:17 12:1 25:1 
0 0 1 0 0 0 2:0.57894737 5:0.42105263 10:19 12:1 17:1 
0 0 1 0 0 0 1:0.35294118 5:0.64705882 10:17 11:1 24:1 
0 0 1 0 0 0 4:0.75 5:0.25 10:20 14:1 22:1 
0 0 1 0 0 0 1:0.6 5:0.4 10:5 11:1 19:1 
0 0 1 0 0 0 2:0.8 5:0.2 10:20 12:1 19:1 
0 0 1 0 0 0 3:0.3 5:0.7 10:20 13:1 17:1 
0.1700208567134372 0.07220270270519726 1 0.1576408198141445 0.1684286033435899 0.1629778124655899 10:2 12:1 32:1 
0 0 1 0 0 0 2:0.5 5:0.5 10:2 12:1 17:1 
0 0 1 0 0 0 4:0.65 5:0.35 10:20 14:1 19:1 
0 0 1 0 0 0 3:0.17647059 10:17 13:1 22:1 
0 0 1 0 0 0 2:0.64285714 5:0.35714286 10:14 12:1 21:1 
0.002529927761512116 0.5827240123822648 0 0.0114482112837145 0.005488477468297083 0.001899582183757649 2:1 10:39 12:1 21:1 
0 0 1 0 0.03210318209129904 0 10:16 12:1 20:1 
0.0102559210494761 0 0 0 0.01976580670079623 0 10:21 11:1 17:1 
0 0 0.710556945102263 0 0 0 2:1 10:10 12:1 25:1 
0 0 1 0 0 0 4:0.66666667 5:0.33333333 10:9 14:1 17:1 
0 0 1 0 0 0 4:0.625 10:16 14:1 23:1 
0.1878668290155798 0.5430191922584466 0 0.006796583153736558 0.09733496768529906 0.1505651804573173 10:21 11:1 19:1 
0 0 1 0 0 0 2:0.63157895 5:0.36842105 10:19 12:1 17:1 
0 0 1 0 0 0 1:0.78947368 5:0.21052632 10:19 11:1 24:1 
0 0 1 0 0 0 2:0.35714286 5:0.64285714 10:14 12:1 17:1 
0 0 1 0 0 0 2:0.76470588 10:17 12:1 22:1 
0 0 1 0 0 0 1:0.95 5:0.05 10:20 11:1 23:1 
0 0 1 0 0 0 3:0.066666667 5:0.93333333 10:15 13:1 17:1 
0 0 1 0 0 0 2:1 10:10 12:1 25:1 
0 0 0.3128484075532998 0 0 0 10:2 12:1 19:1 
0 0 1 0 0 0 2:0.95 5:0.05 10:20 12:1 24:1 
0 0 1 0 0 0 2:0.5 5:0.5 10:2 12:1 19:1 
0 0 1 0 0 0 1:0.28571429 5:0.71428571 10:14 11:1 21:1 
0 0.276017209457224 0 0 0 0 4:1 10:58 14:1 17:1 
0 0 1 0 0 0 2:0.52631579 5:0.47368421 10:19 12:1 17:1 
0 0 1 0 0 0 4:0.125 5:0.875 10:8 14:1 17:1 
0.5367192389649529 0 0.005093751399107454 0 0.1984105769557504 0.1391304213573471 10:5 12:1 20:1 
0 0 1 0 0 0 2:0.55 5:0.45 10:20 12:1 18:1 
0 0 1 0 0 0 10:20 11:1 22:1 
0 0 1 0 0 0 3:0.8125 5:0.1875 10:16 13:1 20:1 
0 0 1 0 0 0 4:0.63157895 5:0.36842105 10:19 14:1 18:1 
0.04559663458167437 0 0.9755854032854696 0 0.1241327210317618 0.0288312722091193 2:0.4 10:5 12:1 28:1 
0.1232335147100733 0 0 0 0.02499275817960886 0 10:19 12:1 19:1 
0 0.001643108054091538 1 0 0 0 4:1 10:1 14:1 24:1 
0 0 1 0 0 0 1:1 10:11 11:1 23:1 
0 0 1 0 0 0 4:0.5 5:0.5 10:20 14:1 18:1 
0 1 1 0 0.5484717379449205 0 10:15 11:1 22:1 
0 0.0994251701526853 0 0 0 0 4:1 10:60 14:1 18:1 
0 0 1 0 0 0 2:0.5 5:0.5 10:20 12:1 17:1 
0 0 1 0 0 0 10:9 11:1 19:1 
0 0 1 0 0 0 2:0.42105263 5:0.47368421 10:19 12:1 17:1 
0 0 1 0 0 0 2:0.11111111 5:0.83333333 10:18 12:1 18:1 
0 0 0.03736577233238862 0 0 0 2:1 10:53 12:1 17:1 
0 0 1 0 0 0 10:20 11:1 24:1 
0.00348577052704316 0 1 0 0 0 5:1 10:2 14:1 18:1 
0 1 0 0.005155159589895726 0 0 1:0.2173913 10:23 11:1 19:1 
0 0 1 0 0 0 2:0.3 5:0.7 10:10 12:1 21:1 
0 0 1 0 0 0 5:0.25 10:4 11:1 17:1 
0 0 1 0 0 0 2:0.63157895 5:0.36842105 10:19 12:1 19:1 
0.8519148846360307 0.5032226312672483 1 0.7131232575324752 1 0.2375497771119072 10:16 12:1 20:1 
0.9774418660470885 0 0 0.05175532478219787 0.5499094802810837 0.03011263000873773 4:0.2 10:5 14:1 20:1 
0 0 1 0 0 0 2:1 10:11 12:1 25:1 
0 0 0.1722465017721075 0 0 0 4:1 10:16 14:1 25:1 
0 0 1 0 0 0 1:0.5 5:0.5 10:2 11:1 18:1 
0.1271345549038659 1 1 0.1578116565586332 0.1210090773084017 0.07249074192532293 10:20 12:1 25:1 
0 0 1 0 0 0 10:6 12:1 19:1 
0 0 1 0 0 0 2:0.75 5:0.25 10:20 12:1 21:1 
0 0 1 0 0 0 4:0.55 5:0.45 10:20 14:1 18:1 
0.5632886617710342 0 1 0.6405941726784632 1 0.9265380931116395 10:2 12:1 22:1 
0 0 1 0 0 0 2:0.8125 5:0.1875 10:16 12:1 20:1 
0.2459493379173935 0 1 0 0 0.1245495023962057 2:0.1 10:10 12:1 20:1 
0.002495063272408589 0 0.0467323740121502 0 0.001663905842169956 0 4:1 10:53 14:1 19:1 
0 0 1 0 0 0 4:0.65 5:0.35 10:20 14:1 18:1 
0.008860196858133083 0 0.0120209419776258 0 0 0 4:1 10:37 14:1 19:1 
0 0 1 0 0 0 10:17 11:1 24:1 
0 0 0.0840966522402766 0.003147518914248232 0.005378721999803073 0 2:1 10:53 12:1 18:1 
0.02049303865118165 0 1 0 0.005952358191560892 0.03027436938778019 2:0.625 5:0.375 10:16 12:1 33:1 
0 0 1 0 0 0 4:0.4375 5:0.5625 10:16 14:1 18:1 
0 0 1 0 0 0 2:0.5625 5:0.4375 10:16 12:1 17:1 
0 0 0 0 0.0007035443612811495 0 1:1 10:9 11:1 28:1 
0 0 1 0 0 0 1:0.97297297 10:37 11:1 17:1 
1 0 1 1 0.1577113602037145 0.1321772201379838 2:0.083333333 10:12 12:1 20:1 
0.214455094149748 1 1 0 0 0 10:55 12:1 17:1 
0 0 1 0 0 0 4:0.15 5:0.8 10:20 14:1 19:1 
0.2397484326406572 1 1 0 0 0 10:53 13:1 17:1 
0 0 1 0 0 0 1:0.3 5:0.7 10:10 11:1 18:1 
0 0 1 0 0 0 3:0.33333333 5:0.5 10:18 13:1 18:1 
0 0 1 0 0 0 1:0.45 5:0.55 10:20 11:1 18:1 
0 1 0 0 0 0 1:1 10:101 11:1 18:1 
0 0 1 0 0 0 3:1 10:16 13:1 23:1 
0 0 1 0 0 0 2:0.1875 5:0.8125 10:16 12:1 23:1 
0 0 0.7076041022856514 0 0 0 10:17 13:1 20:1 
0.002447309063691556 0.009158428682255576 1 0 0.6974966051094393 0 10:9 11:1 19:1 
0 0 0 0.002629436306696415 0.008303416611436179 0.003104579152756059 4:1 10:96 14:1 18:1 
0 1 1 0 0.009960071530203209 0.0075299260094929 10:9 12:1 23:1 
0 0 1 0 0 0 2:0.94444444 5:0.055555556 10:18 12:1 23:1 
0 0 1 0 0 0 2:0.8 10:5 12:1 22:1 
0 0 0 0 0.0241525018108891 0 1:1 10:11 11:1 25:1 
0.4438599554409114 0.6314776673240714 0 0 0 0 10:14 11:1 21:1 
0 0 1 0 0 0 1:0.8125 10:16 11:1 22:1 
0.61809504951156 0.4598236721785816 0 0 0.5132145535099133 0.2035610886606424 10:15 13:1 21:1 
0.6597084500262853 0.02925359856400283 1 0 0 0.4007204380657928 10:6 11:1 20:1 
0 0 1 0 0 0 4:0.57142857 5:0.42857143 10:7 14:1 17:1 
0 0 1 0 0 0 5:1 10:1 12:1 18:1 
0 0 0.1111827588038869 0 0 0 1:0.090909091 10:11 11:1 19:1 
0.006889916875457857 0 0 0 0 0 2:1 10:37 12:1 18:1 
0.004079524639339444 0 0 0 0 0.006762099427857543 1:1 10:66 11:1 17:1 
0 0 1 0 0 0 10:14 12:1 19:1 
0 0 1 0 0 0 10:1 11:1 22:1 
0.3597012102998557 0 1 0 0.6007484882150568 0 10:5 12:1 21:1 
0 0 0 0 0.01498403102825054 0 10:7 12:1 18:1 
0 0 0.7249659356986852 0 0 0 3:0.75 5:0.25 10:12 13:1 17:1 
0.6076176355588233 0 1 0.7128848212446077 1 0.4820100023401614 10:2 11:1 22:1 
0 0.1171858894387591 0 0 0 0 2:0.98913043 10:92 12:1 17:1 
0 0 1 0 0 0 2:0.66666667 10:3 12:1 23:1 
0 0 1 0 0 0 2:0.25 5:0.25 10:8 12:1 17:1 
0 0 1 0 0 0 4:0.1 10:20 14:1 22:1 
0.008940026345296635 0 1 0 0 0 5:1 10:1 11:1 17:1 
0.01769790021290825 1 0 0.01782976361220581 0.01890444519275154 0.01984189569361499 4:1 10:90 14:1 17:1 
0 0 0.09234560863878689 0 0 0 1:1 10:36 11:1 20:1 
0 0 1 0 0 0 1:0.47368421 5:0.52631579 10:19 11:1 23:1 
0 0.04433884270199076 0 0 0 0 1:0.96428571 10:28 11:1 20:1 
0 0 1 0 0 0 4:1 10:2 14:1 23:1 
0 0 1 0 0 0 2:0.66666667 5:0.33333333 10:6 12:1 18:1 
0 0.05101394242647524 0 0 0 0 1:1 10:92 11:1 18:1 
0 0 1 0 0 0 3:0.66666667 5:0.33333333 10:3 13:1 18:1 
0 0.01559236251540468 0 0 0.004103501731690623 0.4418569502902965 10:6 14:1 19:1 
0 0 1 0 0 0 5:1 10:3 13:1 17:1 
0 0 1 0 0 0 1:0.05 5:0.9 10:20 11:1 17:1 
0.3909710356186574 0 0 0 0 0 3:0.25 10:8 13:1 21:1 
0 0 1 0 0 0 4:0.11764706 5:0.88235294 10:17 14:1 17:1 
0 0 1 0 0 0 3:0.16666667 5:0.83333333 10:6 13:1 17:1 
0 0 1 0 0 0 2:0.23076923 5:0.23076923 10:13 12:1 19:1 
0 0 1 0 0 0 3:0.78947368 5:0.21052632 10:19 13:1 19:1 
0 0 0 0 0 0.01018770682079022 3:1 10:28 13:1 19:1 
0 0 1 0.2435412656637375 0 0 10:14 12:1 19:1 
0 0 1 0 0 0 10:1 12:1 22:1 
0 0 1 0 0 0 4:1 10:16 14:1 24:1 
0 0 1 0 0 0 1:0.42105263 5:0.57894737 10:19 11:1 18:1 
0 1 0 0 0 0 4:0.56 10:25 14:1 19:1 
0 0 1 0 0 0 1:0.94444444 10:18 11:1 24:1 
0 0 1 0 0 0 1:0.70588235 10:17 11:1 22:1 
0 0 1 0 0.1922361809695654 0 2:0.055555556 10:18 12:1 21:1 
0 0 0 1 0 0 10:4 11:1 20:1 
0 0.0442942400532144 0.02305416758675669 0 0 0 2:1 10:25 12:1 24:1 
0 0 1 0 0 0 2:0.4375 5:0.5625 10:16 12:1 18:1 
0 0 1 0 0 0 1:0.625 5:0.375 10:8 11:1 20:1 
0 0 1 0 0 0 4:1 10:5 14:1 24:1 
1 0 0 1 0.844235662010075 0 10:11 14:1 20:1 
0 0 0.5025103606696492 0 0 0 2:1 10:6 12:1 24:1 
0 0 1 0 0 0 1:0.95 5:0.05 10:20 11:1 23:1 
0 0 1 0 0 0 3:0.16666667 5:0.83333333 10:18 13:1 17:1 
0 0 1 0 0 0 2:0.15 5:0.85 10:20 12:1 19:1 
0.06550200788122922 0.5447777732006988 1 0 0 0 10:1 11:1 23:1 
0 0 1 0 0 0 2:0.47368421 5:0.52631579 10:19 12:1 17:1 
0 0.2297076036192082 1 0 0 0 2:0.35714286 10:14 12:1 23:1 
0 0 1 0 0 0 4:0.72727273 5:0.27272727 10:11 14:1 17:1 
0 0 1 0 0 0 2:0.94444444 10:18 12:1 23:1 
0 0 1 0 0 0 3:0.85 5:0.15 10:20 13:1 22:1 
0.01701297150093543 0.03322827600232582 0 0.01555954894461533 0.009483014345693028 0.01088992286762467 1:1 10:96 11:1 20:1 
0 0 1 0 0 0 1:0.11764706 5:0.88235294 10:17 11:1 17:1 
0 0 1 0 0 0 4:0.5 5:0.5 10:14 14:1 18:1 
0 0 1 0 0 0 2:0.14285714 5:0.85714286 10:14 12:1 19:1 
0 0 0 0.01230447074932523 0 0 4:1 10:55 14:1 22:1 
0 0 1 0 0 0 10:1 12:1 23:1 
0 0 1 0 0 0 1:0.25 5:0.75 10:4 11:1 18:1 
0 0 1 0 0 0 4:0.5 5:0.5 10:8 14:1 17:1 
0 0 1 0 0 0 10:4 11:1 19:1 
0 0.04695997257502808 1 0 0.1994469797461874 0 10:20 13:1 22:1 
0 0 1 0.009411473589117498 0 0 5:1 10:20 12:1 17:1 
0 0 1 0 0 0 1:0.25 5:0.75 10:4 11:1 19:1 
0 0 1 0 0 0 1:0.8 5:0.2 10:20 11:1 22:1 
0 0 1 0 0 0 2:0.15789474 10:19 12:1 24:1 
0 0 1 0 0 0 1:0.53333333 10:15 11:1 22:1 
0 0 1 0 0 0 5:0.94736842 10:19 13:1 17:1 
0 0 1 0 0 0 3:0.4 5:0.6 10:20 13:1 18:1 
0 0 1 0 0 0 2:1 10:12 12:1 23:1 
0 0 1 0 0 0 2:0.1 10:20 12:1 22:1 
0 0 1 0 0 0 2:1 10:12 12:1 23:1 
0 0.5346686037331112 0 0 0 0 2:0.9375 5:0.0625 10:32 12:1 22:1 
0 0.6434517355370553 0 0 0 0.1019058963104053 10:14 13:1 18:1 
0 0 0 0.00106968167606054 0 0.01202003331174012 3:1 10:49 13:1 17:1 
0 0 1 0 0 0 2:0.28571429 5:0.71428571 10:7 12:1 18:1 
0.03420673544816713 0.23839677681557 0 0.03263458388299754 0.03632462562812556 0.03467797792757377 2:1 10:83 12:1 19:1 
0 0 1 0 0 0 4:0.66666667 5:0.33333333 10:12 14:1 20:1 
0 0 1 0 0 0 1:0.75 5:0.25 10:20 11:1 20:1 
0 0 1 0.07582566386737906 0.1015439297303691 0.378717078530015 10:11 12:1 19:1 
0 0 1 0 0 0 3:0.75 5:0.25 10:20 13:1 18:1 
0 0 1 0 0 0 2:0.92857143 10:14 12:1 22:1 
0.1210010918666599 0.4225881954130999 1 0.05250188526581719 0.02484148977141971 0.01046068354907379 10:20 11:1 24:1 
0 0 0 0 0.007058203396533841 0 1:1 10:95 11:1 18:1 
0 0 1 0 0 0 3:0.65 5:0.35 10:20 13:1 17:1 
1 0 1 1 0 0.8888902815452994 1:0.1 10:10 11:1 21:1 
0 0.7403226149464467 0 0 0 0 2:1 10:101 12:1 17:1 
0 0 1 0 0 0 1:0.53333333 5:0.46666667 10:15 11:1 18:1 
0.02482329802533565 0 0 0.01999689815812512 0.01782699431985613 0.01928059465386852 3:1 10:45 13:1 18:1 
0 0 1 0 0 0 2:1 10:11 12:1 23:1 
0 1 0 0 0 0 2:0.92592593 10:27 12:1 18:1 
0 0 1 0 0 0 1:0.75 5:0.25 10:12 11:1 17:1 
0 0.0458944412735156 0 0.01270910039079123 0.002827529702814548 0.001565980661560195 1:1 10:32 11:1 22:1 
0 0 1 0 0 0 2:0.38461538 5:0.61538462 10:13 12:1 24:1 
0 0 0.9299959706567853 0 0 0 3:1 10:1 13:1 22:1 
0.3541051399550558 0.06427675376476739 1 0 0.2165139605472664 0 1:0.16666667 10:6 11:1 21:1 
0.01274948058434995 0 0 0 0 0 4:1 10:51 14:1 17:1 
0 0 0.06231895537408051 0 0 0 3:0.875 5:0.125 10:16 13:1 19:1 
0 0 1 0 0 0 3:0.7 5:0.3 10:10 13:1 17:1 
1 0.971695414966165 0 0.5793819100953672 0.1257907650247196 0.5901631384550634 10:14 13:1 20:1 
0 0 1 0 0 0 3:0.31578947 5:0.68421053 10:19 13:1 17:1 
0.3637978126978034 0.0254488320080395 0 0 0 0.01841370019878204 10:16 11:1 19:1 
0 0 1 0 0 0 1:0.83333333 5:0.16666667 10:6 11:1 24:1 
0 0 1 0 0 0 5:0.17647059 10:17 12:1 19:1 
0 0 1 0 0 0 10:1 12:1 21:1 
0 0 1 0 0 0 4:0.85 5:0.15 10:20 14:1 20:1 
0 0 1 0 0 0 2:0.055555556 5:0.94444444 10:18 12:1 24:1 
0 0 1 0 0 0 1:0.92307692 10:13 11:1 22:1 
0 0.7692123769714173 0 0 0 0 3:0.99 10:100 13:1 18:1 
0 0 1 0 0 0 3:0.8 5:0.2 10:20 13:1 21:1 
0.1212912938752323 0 1 0 0 0 2:0.14285714 10:7 12:1 21:1 
0 0 1 0 0 0 10:20 11:1 22:1 
0 0 1 0 0 0 1:0.2 5:0.8 10:10 11:1 18:1 
0 0 1 0 0 0 2:0.3 5:0.7 10:10 12:1 21:1 
0 0 1 0 0 0 3:0.1 5:0.9 10:20 13:1 18:1 
0 0 1 0 0 0 3:0.45 5:0.55 10:20 13:1 17:1 
0 0.1312145374165462 0 0 0 0.2756713389667497 1:1 10:13 11:1 26:1 
0 0 1 0 0 0 2:0.76470588 5:0.17647059 10:17 12:1 20:1 
0 0 1 0 0 0 10:20 12:1 22:1 
0 0.3226355520476604 0 0 0.003990190471380325 0.009195250089793992 3:1 10:52 13:1 18:1 
0.1188343337830859 1 0 0.1799918522873812 0.1165001099206591 0.008765734261589209 3:0.090909091 10:22 13:1 18:1 
0 0 1 0 0 0 3:0.63636364 5:0.36363636 10:11 13:1 17:1 
0 0 1 0 0 0 4:0.53846154 5:0.46153846 10:13 14:1 17:1 
0 0 0 0.02592141311970839 0 0.3027012012476734 10:21 12:1 17:1 
0 0 1 0 0 0 2:0.058823529 5:0.94117647 10:17 12:1 17:1 
0.1488155581191032 0 0 0.001298481890856493 0.1227708992052413 0.259553705484469 10:15 13:1 20:1 
0 0 1 0 0 0 1:0.1 5:0.9 10:20 11:1 24:1 
0 0 0 0.01062465878831241 0.007678036132843197 0.007508701958260419 4:1 10:59 14:1 17:1 
0.9281962907032056 1 0 0.5109331443942731 0.2764005655138292 0 10:22 12:1 17:1 
0 0 1 0 0 0 2:0.45 5:0.55 10:20 12:1 19:1 
0 0 1 0 0 0 2:0.52941176 10:17 12:1 22:1 
0 0 1 0 0 0 2:0.26666667 5:0.73333333 10:15 12:1 17:1 
0 0 1 0 0 0 4:0.75 5:0.25 10:8 14:1 20:1 
0.1532143246484102 0 0 0.5032493877334265 0 0.1422298920437668 10:13 14:1 20:1 
0 0 1 0 0 0 1:0.29411765 5:0.70588235 10:17 11:1 18:1 
0 0 1 0 0 0 3:0.1 5:0.9 10:20 13:1 22:1 
0 0 0 0 0.004528384307728762 0 2:1 10:24 12:1 23:1 
0 0 1 0 0 0 2:0.6 5:0.4 10:5 12:1 17:1 
0.01420863985161585 0 1 0.03160252426003232 0.01893986823525921 0 5:1 10:4 13:1 21:1 
0 0 1 0 0 0 4:0.72727273 5:0.27272727 10:11 14:1 17:1 
0 0 1 0 0 0 4:0.6 5:0.4 10:5 14:1 17:1 
0 0 0.5808060266659326 0 0 0 2:0.058823529 10:17 12:1 20:1 
0 0 1 0 0 0 1:0.05 10:20 11:1 22:1 
0 0 1 0 0 0 2:0.052631579 5:0.84210526 10:19 12:1 17:1 
0 0 1 0 0 0 2:0.9375 10:16 12:1 23:1 
1 0.7611988349997779 0 1 0.5505351520388222 1 10:13 14:1 21:1 
0 0 1 0 0 0 2:0.94117647 10:17 12:1 22:1 
0.1416080774819318 0 0 0 0 0 10:15 14:1 20:1 
0 0 1 0 0 0 10:17 12:1 20:1 
0 0 1 0 0 0 1:0.27777778 10:18 11:1 23:1 
0 0 1 0 0 0 2:0.4375 5:0.5625 10:16 12:1 17:1 
0 0 1 0 0 0 2:0.16666667 5:0.83333333 10:6 12:1 17:1 
0 0 1 0 0 0 2:0.95 5:0.05 10:20 12:1 23:1 
0 0.002442814381699947 0 0 0.02448646336343897 0 10:10 13:1 17:1 
0 0 1 0 0.003056162453029309 0 10:19 12:1 21:1 
0 0 1 0 0 0 1:0.33333333 10:18 11:1 22:1 
1 0 0 0.9789905085609986 0 0 10:11 13:1 20:1 
0 0 1 0 0 0 3:0.375 5:0.625 10:8 13:1 18:1 
0 0 0.9363333267745726 0 0 0 1:1 10:2 11:1 25:1 
0 0.9864594638794633 0 0.001857363707450574 0.001957865377875734 0.01345472634053727 1:1 10:92 11:1 18:1 
0 0 0 0 0 0.002957119351571511 2:1 10:32 12:1 20:1 
0 0 1 0 0 0 3:0.75 5:0.25 10:20 13:1 18:1 
0 0 1 0 0 0 2:1 10:4 12:1 24:1 
0 0 0.5318298164544523 0 0 0 1:1 10:7 11:1 25:1 
0 0 1 0 0 0 4:0.3 5:0.7 10:20 14:1 17:1 
0 0 1 0 0 0 2:1 10:11 12:1 25:1 
0 0 0.70764198473035 0 0 0 4:1 10:9 14:1 23:1 
0 1 1 0 0 0.1617411176279938 10:1 14:1 21:1 
0 0 1 0 0 0 10:7 11:1 20:1 
0 0 0 2.013528750609457e-05 0 0.003771394118767731 2:1 10:49 12:1 19:1 
0 0 0 0.7500970690100064 0 0.8964418982276497 10:10 14:1 20:1 
0 0 1 0 0 0 1:1 10:11 11:1 23:1 
0 0 1 0 0 0 3:0.65 5:0.35 10:20 13:1 17:1 
0 0 0.9997588627633215 0 0 0 10:17 13:1 19:1 
0 0 0 0 0 0.008511300308118497 2:1 10:57 12:1 18:1 
0 0 1 0 0 0 2:0.35 5:0.65 10:20 12:1 17:1 
0.2451062577797783 0.8537727648089041 1 1 0 0 10:14 12:1 19:1 
0 0 1 0 0 0 4:0.0625 5:0.9375 10:16 14:1 17:1 
0 0.004726793621462848 0 0.006525317458689767 0.004423971584540973 0 3:1 10:51 13:1 18:1 
0 0 1 0 0 0 4:0.85 5:0.15 10:20 14:1 19:1 
1 0.8420159047994265 1 1 0.7026571039334488 0.7366282721144849 10:1 14:1 20:1 
0 0 1 0 0 0 5:1 10:1 12:1 17:1 
0.5430558747183345 0.3125513043496975 0.5791245690973298 1 0.7799357468719033 0.3336669964305936 10:3 13:1 21:1 
0 0 1 0 0 0 2:0.25 5:0.75 10:20 12:1 17:1 
0 0.5481929633815517 1 0 0 0.03485698050888662 10:19 11:1 25:1 
0 0 1 0 0 0 2:0.6 5:0.4 10:10 12:1 17:1 
0.0334232679934314 0.69569336954691 0 0.02626078190781579 0.0265997867061225 0.03001629493961268 3:1 10:66 13:1 17:1 
0 0 1 0 0 0 1:0.85 5:0.15 10:20 11:1 20:1 
0 0 1 0 0.01024335273178534 0 5:1 10:19 11:1 21:1 
0 0 1 0 0 0 3:0.47368421 5:0.52631579 10:19 13:1 17:1 
0 0 1 0 0 0 1:0.5 5:0.5 10:2 11:1 18:1 
0 0 1 0 0 0 4:0.64705882 5:0.35294118 10:17 14:1 18:1 
0 0 1 0 0 0 1:0.88888889 10:9 11:1 23:1 
1 0.3038562705616497 1 0.965828693833638 0.4920155219920582 1 10:9 12:1 20:1 
0 0 0 0 0 0.004965938805708663 1:1 10:29 11:1 20:1 
0 0 1 0 0 0 2:0.66666667 10:3 12:1 22:1 
0 0 1 0 0 0 10:19 12:1 20:1 
0 0 0 0 0.02218146894658259 0 10:10 11:1 17:1 
0 0 0.6348060819814125 0 0 0 2:1 10:5 12:1 25:1 
0 0 1 0 0 0 1:0.71428571 10:7 11:1 23:1 
0.002795310508157288 1 0 0.004521288623443409 0.01042788550419776 0 1:1 10:88 11:1 18:1 
0 0 1 0 0 0 1:0.86666667 10:15 11:1 23:1 
0.002887714430556529 0.2140581674814824 0 0 0 0.4759698317240573 4:1 10:13 14:1 26:1 
0 0 1 0 0 0 4:1 10:10 14:1 24:1 
0 0 1 0 0 0 4:0.85 5:0.15 10:20 14:1 22:1 
0.0182001981747235 1 0 0.01576374289582218 0.01243703032246475 0.01929767758131235 2:1 10:88 12:1 19:1 
0 0 0 0 0.003611674042478685 0 3:1 10:34 13:1 19:1 
0 0 1 0 0 0 2:0.72222222 5:0.27777778 10:18 12:1 19:1 
0 0.08982210978080508 0 0 0 0 1:1 10:60 11:1 18:1 
0 0.0192471870393672 0 0 0 0.001006896604112626 4:1 10:35 14:1 20:1 
0 0 1 0 0 0.1760640684670736 1:0.052631579 10:19 11:1 26:1 
0 0.07829295499182887 0 0 0 0 2:1 10:28 12:1 19:1 
0 0 0 0.04058049253268071 0 0 1:1 10:25 11:1 21:1 
0.2640852422801864 1 0 0 0 0 4:0.13043478 10:23 14:1 17:1 
0 0 1 0 0 0 3:0.25 5:0.75 10:16 13:1 17:1 
0 0 0 0 0.2703379202660806 0 10:5 14:1 18:1 
0 0 1 0 0 0 2:1 10:4 12:1 24:1 
0 0 1 0 0 0 3:1 10:14 13:1 23:1 
0 0 1 0 0 0 3:0.11111111 5:0.88888889 10:9 13:1 17:1 
0 0 1 0 0 0 5:0.090909091 10:11 11:1 17:1 
0.3050184506194369 0 1 0.5334107668486286 0.1395007380151935 0 10:2 11:1 21:1 
0.06921212891633324 0.1374706554357815 0 0 0 0.7140994399182234 10:8 14:1 20:1 
0 0 1 0 0 0 4:0.5 5:0.5 10:10 14:1 17:1 
0 0 1 0 0 0 2:0.9375 5:0.0625 10:16 12:1 23:1 
0 0 0.5220660836017513 0 0 0 1:1 10:26 11:1 18:1 
0 0 1 0 0 0 2:0.058823529 10:17 12:1 22:1 
0 0.3698538369617511 0 0 0 0.01280487806440167 2:0.095238095 10:21 12:1 18:1 
0 0 1 0 0 0 1:0.88235294 10:17 11:1 22:1 
0 0 1 0 0 0 1:0.66666667 5:0.33333333 10:3 11:1 17:1 
0.08082958119829455 0.592474805045041 1 0.107948119668773 0.09852066736788553 0.105015788371677 10:20 12:1 24:1 
0 0 0 0 0.1498638287991745 0 3:1 10:24 13:1 20:1 
0.7656931260123288 0 1 0 0 0 10:19 12:1 20:1 
0 0 1 0 0 0 4:0.57142857 5:0.42857143 10:7 14:1 17:1 
0 0 1 0 0 0 2:0.88888889 5:0.11111111 10:9 12:1 22:1 
0 0 1 0 0 0 2:0.92857143 10:14 12:1 25:1 
0 0 1 0 0 0 4:0.17647059 10:17 14:1 22:1 
0 0.2580550735197908 0 0 0 0 10:9 13:1 18:1 
0 0 1 0 0 0 3:0.42105263 5:0.36842105 10:19 13:1 19:1 
0 0 1 0 0 0 1:0.4375 10:16 11:1 22:1 
0 0 1 0 0 0 1:0.15 5:0.85 10:20 11:1 24:1 
0 0 0 0.00356635504659722 0.009385714284826378 0.01156033346876609 2:1 10:49 12:1 20:1 
0.0204833728913066 1 0 0.01790315491632451 0.02002911420752442 0.02016834592238073 4:1 10:93 14:1 20:1 
0 0 0.82564758542384 0 0 0 2:1 10:10 12:1 23:1 
0 0 0.2283932610774383 0 0 0 1:0.75 5:0.25 10:20 11:1 18:1 
0.1681384815410205 0.1617010506438492 0.3733054375736227 0.5587408045375662 0 0.0357658542705119 10:13 13:1 19:1 
0.05732808601020076 0 0 0.04024060965446162 0 0.03135642467061928 1:1 10:1 11:1 28:1 
1 0.0663385037390659 0 1 1 0.9861178805481977 10:3 13:1 20:1 
0 0 1 0 0 0 10:17 12:1 19:1 
0 0 1 0 0 0 2:0.15 5:0.85 10:20 12:1 18:1 
0 0 0.3962331312573608 0 0 0 4:1 10:6 14:1 22:1 
0 0 1 0 0 0 1:0.5 5:0.5 10:2 11:1 17:1 
0.8376547089456408 0 0.3808631137741104 1 0.6074955180640655 0.5963343037040255 10:11 13:1 20:1 
0 0 1 0 0 0 2:1 10:10 12:1 23:1 
0 0 1 0 0 0 10:17 12:1 19:1 
1 0.19310110422958 0.1869934777006161 0.7987951554530928 0.3034105008322738 0 10:2 12:1 20:1 
0 0 1 0 0.04703406497111322 0.0001060313898427097 5:1 10:20 12:1 22:1 
0 0 1 0 0 0 1:0.5 5:0.5 10:18 11:1 17:1 
0 0 0 0 0 0.06060427865458419 2:0.071428571 10:14 12:1 21:1 
0 0 1 0 0 0 3:0.94117647 10:17 13:1 23:1 
0 0 0 0 0 0.002056084304078066 4:1 10:30 14:1 19:1 
0 0 1 0 0 0 4:0.5 5:0.5 10:20 14:1 17:1 
0 0.1473912317752037 0 0 0 0 10:15 11:1 18:1 
0.03695705322579041 1 0 0.01610933050940955 0.01786989763014255 0.03428404563831041 2:0.95454545 10:66 12:1 18:1 
0 0 1 0 0 0 5:1 10:1 12:1 18:1 
0 0 1 0 0 0 2:1 10:11 12:1 25:1 
0 0 1 0 0 0 1:0.94444444 10:18 11:1 23:1 
0.1112673069200555 0.537436889882752 1 0.6418558283281888 0.04421214166037039 0 10:8 11:1 22:1 
0 0 0 0 0.007907266511296055 0 2:1 10:56 12:1 17:1 
0 0 1 0 0 0 4:0.84210526 5:0.15789474 10:19 14:1 20:1 
0 1 0.306965667160132 0 0 0 2:0.40540541 10:37 12:1 17:1 
0 0 1 0 0 0 4:0.52941176 5:0.47058824 10:17 14:1 19:1 
0 0 1 0 0 0 1:0.7 5:0.3 10:20 11:1 18:1 
0 0 1 0 0 0 1:0.78571429 5:0.21428571 10:14 11:1 21:1 
0 0 1 0 0 0 2:0.85714286 5:0.14285714 10:7 12:1 24:1 
0 0 1 0 0 0 2:0.058823529 10:17 12:1 20:1 
0 0 0.02505215524335855 0 0 0 1:0.94594595 10:37 11:1 18:1 
0.3343367412133602 0 0.9798464776748829 0 0.05999791411180419 0.4633491162431111 10:4 11:1 19:1 
0 0.6541738355385284 1 0.01798505013326893 0 0 10:1 11:1 25:1 
0 0 1 0 0 0 5:1 10:1 11:1 18:1 
0 0.7915970035893314 0 0 0 0 3:0.90384615 10:52 13:1 17:1 
0 0 1 0 0 0 10:20 12:1 22:1 
0 0.1844285297048015 0 0 0 0 4:0.71428571 10:63 14:1 19:1 
0 0.6970986155741257 0 0 0 0 2:1 10:31 12:1 21:1 
0 0 1 0 0 0 4:0.5 10:16 14:1 22:1 
0 0.152667822241961 1 0.01534741448685771 0 0.1107325460388697 2:0.15384615 5:0.61538462 10:13 12:1 24:1 
0.05415169597750958 0.02613462845425983 1 0.0683848374728912 0.01504694388190476 0.06858152266522774 5:1 10:11 12:1 23:1 
0 0.389448648211497 0 0 0 0 3:0.88 10:25 13:1 19:1 
0 0 1 0 0 0 10:19 12:1 25:1 
0 0 1 0 0.002997153443734277 0 5:1 10:20 14:1 18:1 
0 0.04163522648794134 0 0 0 0 1:1 10:34 11:1 21:1 
0 0 0 0.007335201186469405 0.004000992244893932 0.00368572268639144 2:1 10:51 12:1 19:1 
0 0 0 0 0 0.006852769550248885 2:1 10:32 12:1 22:1 
0 0 1 0 0 0 3:0.5 5:0.5 10:20 13:1 17:1 
0.00796287896923034 1 0 0.008316939208198069 0.006434710042717562 0 4:1 10:101 14:1 17:1 
0.009398654037363861 0.635747112094103 0 0.01442883632397352 0.01650530847747669 0.01093072300974004 1:1 10:55 11:1 21:1 
0 0 1 0 0 0 2:1 10:12 12:1 23:1 
0 1 0 0 0.07793150696468627 0.07454164016102505 10:21 11:1 18:1 
0 0.02465806836844053 0 0 0 0 1:0.98461538 10:65 11:1 21:1 
0 0.8882433238941626 0 0 0 0 4:0.92307692 10:65 14:1 18:1 
0 0 1 0 0 0 1:1 10:7 11:1 25:1 
0.5946161437885329 1 0 0.2443376197326441 0.4733938366374292 0.01763052845230152 10:21 13:1 19:1 
0.02237347306467433 0 0 0 0 0 10:11 14:1 18:1 
0 0 1 0 0 0 1:0.2 10:5 11:1 23:1 
0 0 0 0 0 0.001712838611704509 2:1 10:30 12:1 19:1 
0.0531993364064551 0 0 0 0 0 10:17 13:1 20:1 
0 0 1 0 0 0 2:0.22222222 10:18 12:1 22:1 
0.1589323844935205 0.1716760139864532 0 0.00737546194691948 0 0.002029828299634001 3:1 10:30 13:1 21:1 
0 0 0.9715731196929627 0 0 0 10:1 13:1 19:1 
0.003524709588748269 0 1 0 0.01603378923110832 0 5:1 10:12 11:1 19:1 
0 0 1 0 0 0.1768792936608278 10:6 12:1 20:1 
0 1 0 0 0 0 2:0.99009901 10:101 12:1 21:1 
0 0 0 0.01029555568265948 0.01280360615001824 0 3:1 10:50 13:1 17:1 
0 0 0 0 0.04101071289647767 0 1:1 10:19 11:1 27:1 
0 0 1 0 0 0 2:0.875 10:8 12:1 24:1 
0 0 1 0 0 0 2:0.75 5:0.25 10:20 12:1 19:1 
0 0 1 0 0 0 3:1 10:10 13:1 22:1 
0 0.1158414718425252 0 0 0 0 4:0.97435897 10:39 14:1 18:1 
0 0 1 0 0 0 3:0.5 5:0.5 10:10 13:1 17:1 
0 0 0.3276294025983583 0 0 0 10:1 12:1 20:1 
0 0 1 0 0 0 10:18 11:1 20:1 
0.02842280281586719 1 0 0.02114640483089611 0.01780783313988175 0.02496227538947282 1:1 10:88 11:1 17:1 
0 0 1 0 0 0 10:1 11:1 24:1 
0 0 1 0 0 0 4:0.25 5:0.75 10:16 14:1 17:1 
0 0 1 0 0.02262097577590441 0 1:0.14285714 10:14 11:1 22:1 
0 0 1 0 0 0 1:0.625 10:16 11:1 22:1 
0.05465396630966265 0.7417687138457927 1 0.02349174713745513 0.1368501744975469 0 1:0.11111111 10:9 11:1 24:1 
0 0 1 0 0 0 3:0.6875 5:0.1875 10:16 13:1 20:1 
0 0 1 0 0 0 1:0.2 5:0.8 10:20 11:1 18:1 
0 0 1 0 0 0 2:0.22222222 5:0.77777778 10:18 12:1 23:1 
0 0 1 0 0 0 4:0.6 5:0.4 10:20 14:1 17:1 
0 0 1 0 0 0 1:1 10:11 11:1 23:1 
1 0 0 0.3996168824482804 0.3235656607559696 0.7276985114938836 10:3 14:1 19:1 
0 0 0.2146247175949633 0 0 0 1:1 10:9 11:1 25:1 
0.005510403711741475 0.705837273301375 0 0 0 0 1:1 10:54 11:1 20:1 
0 0.2882246641738896 0 0 0 0 2:0.94545455 10:55 12:1 19:1 
0 0 0.2443851844396306 0 0 0 2:0.11111111 10:18 12:1 21:1 
0 0 1 0 0 0 1:0.1 5:0.9 10:20 11:1 18:1 
0 0 1 0.04744503177686563 0 0.03212911278070853 5:1 10:20 11:1 21:1 
0 0 1 0 0 0 1:0.78947368 5:0.21052632 10:19 11:1 22:1 
0 0 1 0 0 0 3:0.8 5:0.2 10:20 13:1 19:1 
0 0 1 0 0 0 10:17 13:1 19:1 
0 0 1 0 0 0 5:1 10:1 13:1 17:1 
0 0.1177921851201602 1 0 0.04234053257876977 0 10:4 12:1 24:1 
0 0.6270918345354092 0 0 0 0 2:1 10:28 12:1 17:1 
0 0 1 0 0 0 4:0.058823529 5:0.23529412 10:17 14:1 18:1 
0 0 0.3643459324342554 0 0.0271311035071354 0 3:1 10:25 13:1 20:1 
0 0 1 0 0 0 10:17 12:1 22:1 
0 0 1 0 0 0 1:0.94736842 5:0.052631579 10:19 11:1 23:1 
0 0 1 0 0 0 3:0.058823529 10:17 13:1 22:1 
0 0.6454115045074806 0 0 0 0 4:1 10:91 14:1 17:1 
0 0 1 0 0 0 3:1 10:17 13:1 23:1 
0 0 1 0 0 0 5:1 10:1 13:1 17:1 
0 0 1 0 0 0 1:0.75 5:0.25 10:20 11:1 18:1 
0.0130087050900291 0.7664125124379559 0 0.01676446372620403 0.01555775046265922 0.01895993021865734 2:1 10:95 12:1 19:1 
0 0 0.5958437503478804 0 0 0 1:1 10:8 11:1 25:1 
0 0 1 0 0 0 3:0.4 5:0.6 10:20 13:1 18:1 
0 0 0 0 0.01677312168367975 0 3:1 10:34 13:1 22:1 
0.664679758429487 0.5938271808964107 1 0.02187007328428502 0.2092162929425409 1 10:14 12:1 21:1 
0 0 1 0 0 0 2:0.72727273 5:0.27272727 10:11 12:1 20:1 
0 0 1 0 0 0 3:0.13333333 5:0.86666667 10:15 13:1 17:1 
0.002267622595126972 0.1845994534504764 0 0.004829114254702338 0.00186396032884895 0 1:1 10:90 11:1 17:1 
0 0 0 0 0 0.04129714139799283 10:13 14:1 18:1 
0 0 1 0 0 0 4:0.875 10:16 14:1 24:1 
0 0 1 0 0 0 1:0.2 10:5 11:1 23:1 
0.03380821185893274 0 0.4791010850305676 0 0.04382495668999328 0 10:17 11:1 29:1 
0.04422366662832702 0 0 0.05329053457132094 0.06334946419630962 0.05143040687297445 1:1 10:2 11:1 29:1 
0 1 0 0.0008013879436172852 0.01565116726914314 0.003035522391593464 3:1 10:41 13:1 20:1 
0 0 1 0 0 0 3:0.0625 5:0.9375 10:16 13:1 17:1 
0 0 1 0 0 0 1:0.5 5:0.5 10:2 11:1 18:1 
0 0.2794201748294484 0 0 0.003378026277535122 0 3:1 10:58 13:1 18:1 
0 0 1 0 0 0 3:0.57142857 5:0.42857143 10:7 13:1 17:1 
0 0 1 0 0 0 3:0.28571429 5:0.64285714 10:14 13:1 17:1 
0 0 0.2211288953247774 0 0 0 1:1 10:6 11:1 24:1 
0 0 0.6996643357288097 0 0.07315482783501616 0 1:1 10:25 11:1 20:1 
0 0 1 0 0 0 4:0.5 5:0.5 10:2 14:1 21:1 
0 0 1 0 0 0 1:0.47058824 5:0.52941176 10:17 11:1 19:1 
0 0 1 0 0 0 4:0.2 5:0.8 10:20 14:1 17:1 
0 0 1 0 0 0 1:0.8125 10:16 11:1 22:1 
0 0 1 0 0 0 2:0.75 5:0.25 10:20 12:1 18:1 
0.1866677880297324 0 1 0 0.6389405316373089 0.004352427659975278 10:9 12:1 19:1 
0 0.7419375985087538 1 0 0 0 10:1 12:1 21:1 
0 0 1 0 0 0 2:0.52941176 5:0.47058824 10:17 12:1 18:1 
0 0.2590145086676558 0 0 0 0 1:1 10:1 11:1 27:1 
0 0 1 0 0 0 2:0.9 5:0.1 10:20 12:1 22:1 
0 0 1 0 0 0 2:0.75 5:0.25 10:12 12:1 17:1 
0 0 1 0 0 0 4:0.54545455 5:0.36363636 10:11 14:1 17:1 
0 0 0.7325944317797737 0 0 0 1:1 10:10 11:1 22:1 
0 0.6641047761334125 0 0 0 0 2:1 10:27 12:1 19:1 
0 0 1 0 0 0 3:1 10:4 13:1 24:1 
0 1 0 0 0 0 1:1 10:38 11:1 20:1 
0 0 1 0 0 0 5:1 10:1 12:1 18:1 
0 0 0 0.1967310781099928 0 0.7004153635741922 4:0.15384615 10:13 14:1 21:1 
0 0 1 0 0 0 10:1 12:1 23:1 
0 0 0 0 0.0226810426842606 0.02594439869609729 1:1 10:23 11:1 23:1 
0.07433098739978214 0 1 0 0.07705549091369968 0 10:2 12:1 21:1 
0 0 1 0 0 0 2:0.65 5:0.35 10:20 12:1 19:1 
0 0 1 0 0.05763385294728306 0 10:18 12:1 23:1 
0 0.5708342913971843 1 0 0 0.1388350868524552 10:17 13:1 23:1 
0.0381167067497325 0 0 0.2300728216736569 0 0 4:0.5 10:2 14:1 20:1 
0 0 1 0 0 0 5:1 10:1 12:1 18:1 
0 0 1 0 0 0 2:1 10:10 12:1 23:1 
0 0 0 0.6995817071459243 0 0 10:3 13:1 18:1 
0.1220473344419755 0.03196509557153845 1 0.1528182911512903 0.1138098700167712 0 10:20 11:1 26:1 
0 0 1 0 0 0 3:1 10:2 13:1 23:1 
0.08245889696000648 1 1 0 0 0 10:54 11:1 18:1 
0 0 1 0 0 0 2:0.11111111 5:0.11111111 10:9 12:1 17:1 
0 0 1 0 0 0 3:1 10:1 13:1 22:1 
0 0 1 0 0 0 1:0.41176471 5:0.58823529 10:17 11:1 18:1 
0 0.7469521331465341 0 0.2734427183055752 0 0.183429594263336 10:1 13:1 20:1 
0 0.6150329388983571 0 0.003553178000995388 0.007241629486789847 0 2:1 10:90 12:1 17:1 
0 0 1 0 0 0 2:0.41666667 5:0.58333333 10:12 12:1 22:1 
0 0 1 0 0 0 2:0.9375 5:0.0625 10:16 12:1 23:1 
0 0.3602839494164639 0 0 0 0 4:0.9 10:30 14:1 20:1 
0 0 1 0.6594968829460397 0 0 10:20 12:1 22:1 
0 0 0 0 0.002968485700443179 0 3:1 10:59 13:1 17:1 
0 0 1 0 0 0 5:1 10:1 12:1 18:1 
0 0 0 0 0.001189152219878862 0 1:1 10:33 11:1 19:1 
0 0 1 0 0 0 1:0.52941176 10:17 11:1 23:1 
0 0 1 0 0 0 4:0.57142857 5:0.42857143 10:14 14:1 18:1 
0 0 1 0.06131857279456926 0 0 10:20 11:1 22:1 
0 0 1 0 0 0 2:0.5 5:0.5 10:16 12:1 17:1 
0 0 1 0 0 0 10:17 13:1 19:1 
0.02571579675289503 1 0 0.02704302935437618 0.031261986000968 0.03895905060923258 2:0.99019608 10:102 12:1 17:1 
0 0.846697254595981 0 0 0 0 10:8 14:1 18:1 
0 0 1 0 0 0 4:0.5 5:0.5 10:20 14:1 18:1 
1 0 0 0 0 0 10:2 11:1 20:1 
0 0 1 0 0 0 10:1 12:1 20:1 
0 0 1 0 0 0 3:0.26315789 5:0.73684211 10:19 13:1 17:1 
0 0 1 0 0 0 3:0.94444444 5:0.055555556 10:18 13:1 22:1 
0 0.5531835824729169 0 0 0 0 3:0.96875 10:32 13:1 17:1 
0 0 1 0 0 0 1:0.5 5:0.5 10:2 11:1 17:1 
0 0 0 0 0.4771576703187743 0 10:19 14:1 21:1 
0 0 1 0 0 0 4:0.2 5:0.8 10:10 14:1 18:1 
0 0 1 0.1452207883694767 0.02380800154971549 0 10:4 12:1 23:1 
0.002364716290015163 0 0 0.00840258850629395 0 0.005252535497719533 3:1 10:95 13:1 17:1 
0 0 1 0 0 0 3:0.14285714 5:0.85714286 10:7 13:1 17:1 
0 0 1 0 0 0 3:0.33333333 10:18 13:1 23:1 
0.7671781698695902 0 0 0.7124269467266184 0.4067379930813442 0 10:2 11:1 20:1 
0 0 1 0 0 0 1:0.84210526 10:19 11:1 23:1 
0 0 1 0 0 0 2:1 10:6 12:1 24:1 
0 0.04453682887502635 0 0 0.0102593579079466 0 10:9 12:1 18:1 
0.2050042651378235 1 1 0 0 0 10:55 14:1 17:1 
0 0 1 0 0 0 5:1 10:4 12:1 17:1 
0 0 1 0 0 0 1:0.95 5:0.05 10:20 11:1 23:1 
0.01860580726927893 0 1 0.6153547102589949 0 0 10:13 11:1 19:1 
0 0.9927908051878207 0 0 0 0 3:0.96296296 10:27 13:1 17:1 
0 0 0.9783161757286818 0 0 0 4:1 10:9 14:1 23:1 
0 0 1 0 0 0 1:0.5 5:0.5 10:2 11:1 18:1 
0 0 1 0 0 0 1:0.875 10:8 11:1 23:1 
0.8419316578801089 0.6104398605960143 1 0.1517842940793321 0.7500145214652103 0.649066595619416 10:20 14:1 23:1 
0 0 0 0 0 0.256572999502768 1:0.076923077 10:13 11:1 21:1 
0.3674664493588285 0.4858363584123703 0 0.18374653739858 0.3041232827728566 0.8404434032558387 10:8 13:1 20:1 
0 0 1 0 0 0 2:0.1 5:0.9 10:20 12:1 22:1 
0.01646636897525207 0 0 0 0 0.08342035353727827 2:0.64285714 10:14 12:1 27:1 
0 0.4078251905201631 0 0.002926749483043809 0 0 1:1 10:51 11:1 18:1 
0 0 1 0 0 0 2:0.85 5:0.15 10:20 12:1 20:1 
0.004759843533538131 0.2854710935978681 0 0.009437105954310599 0.01083545658076108 0.006761717160099903 1:1 10:41 11:1 22:1 
0 0 1 0 0 0 2:0.5 5:0.5 10:8 12:1 17:1 
0 0 0 0.01406062768751865 0.009069290026385577 0 3:1 10:95 13:1 18:1 
0 0 1 0 0 0 10:1 11:1 22:1 
0 0 0 0 0 0.08001221856710643 10:12 12:1 18:1 
0 0 1 0 0 0 3:0.6 5:0.4 10:15 13:1 17:1 
0.4033043901986698 0 0 0 0 0 1:0.066666667 10:15 11:1 20:1 
0 0 1 0 0 0 3:1 10:2 13:1 23:1 
0 0 1 0 0 0 2:1 10:10 12:1 23:1 
0 0 1 0.2986895452231818 0.0773608384388564 0.4288660089102302 10:4 12:1 22:1 
0 0 1 0 0 0 1:0.55 5:0.45 10:20 11:1 17:1 
0 1 0 0 0 0 3:0.99 10:100 13:1 17:1 
0 0 0 0 0 0.0031515107495347 1:1 10:29 11:1 19:1 
0 0 1 0 0 0 1:0.25 5:0.75 10:4 11:1 19:1 
0.4461601426963786 0 1 1 0.7529150195223133 0.3129070623581741 10:20 11:1 22:1 
0 0 1 0 0 0 3:0.31578947 5:0.47368421 10:19 13:1 20:1 
0 1 1 0 0 0 2:0.80555556 10:36 12:1 17:1 
0 0 1 0 0 0 10:17 11:1 20:1 
0 0 1 0 0 0 10:2 12:1 19:1 
0 1 0 0 0 0.00493802298039786 2:1 10:40 12:1 20:1 
0 0 0 0 0.06428600008728985 0.1434125919344529 10:18 14:1 20:1 
0 0 1 0 0 0 1:1 10:6 11:1 24:1 
0 0.04325264197872331 0 0 0 0 2:0.98412698 10:63 12:1 22:1 
0 0 1 0.003732070386842459 0.01931853033258384 0 5:1 10:1 11:1 19:1 
0 0 1 0 0 0 4:0.55 5:0.45 10:20 14:1 17:1 
0 0 1 0 0 0 10:2 11:1 23:1 
0 0 1 0 0 0 3:0.3 5:0.7 10:10 13:1 17:1 
0 0 1 0 0 0 1:0.1 5:0.9 10:20 11:1 17:1 
0 0.06671603012642774 0 0 0 0 1:1 10:31 11:1 17:1 
0 0 1 0 0 0 2:0.8 5:0.2 10:5 12:1 21:1 
0.4467935990602864 1 1 0.4277307602550192 0.1154351217129725 0.1882558551292777 10:1 13:1 23:1 
0 0 0 0.001149860672721068 0 0.007547043319363133 3:1 10:37 13:1 18:1 
0 0 1 0 0 0 1:0.47058824 5:0.52941176 10:17 11:1 22:1 
0 0 1 0 0 0 1:0.29411765 10:17 11:1 23:1 
0 0 0.4020324192206986 0 0 0 1:1 10:4 11:1 25:1 
0 1 1 0 0 0 10:55 12:1 18:1 
0 0 1 0 0 0 5:1 10:1 13:1 17:1 
0.04915154381518999 0.5870762446254707 0 0 0.009506635949244901 0.09205456150804846 10:9 13:1 19:1 
0.5218657480821656 0.416216311829061 1 0.04136893555222902 0.09554090547959304 0.02075033997297262 10:1 11:1 24:1 
0 0 1 0 0 0 3:0.45 5:0.5 10:20 13:1 17:1 
0 0 1 0 0 0 1:0.0625 5:0.9375 10:16 11:1 17:1 
0 0 1 0 0 0 1:0.1 5:0.9 10:20 11:1 18:1 
0 0 1 0 0 0 1:0.083333333 5:0.91666667 10:12 11:1 17:1 
0 0 0.3814345389623783 0 0 0 2:1 10:4 12:1 23:1 
0 0.7841019636717493 0 0 0 0 3:0.9 10:30 13:1 18:1 
0 0.2730731330430917 0 0 0 0 1:1 10:32 11:1 19:1 
0 0 1 0 0 0 10:5 12:1 22:1 
0.09956995350268115 0.5350592529731674 1 0.08818149841177779 0.1628748128167612 1 1:0.1 10:10 11:1 26:1 
0 0 1 0 0 0 10:17 12:1 19:1 
0 0.9667217389896016 0 0 0 0 4:0.97435897 10:39 14:1 18:1 
0 0 1 0 0 0 1:0.8 5:0.2 10:20 11:1 19:1 
0 0 0 0.002297455795692004 0 0.006549735880292997 2:1 10:58 12:1 17:1 
0 0 1 0 0 0 10:19 12:1 24:1 
0 0 1 0 0 0 3:0.1 5:0.85 10:20 13:1 19:1 
0.3821470754718722 0.3774380833826966 1 0.01303068758918653 0.01250028095720171 0.1257170960358243 10:1 12:1 24:1 
0 0 1 0 0 0 5:1 10:16 11:1 18:1 
0 0 1 0 0 0 1:0.9 10:10 11:1 23:1 
0 0.4196125656568933 0 0 0 0 10:8 13:1 18:1 
0 0 1 0 0 0 1:0.4 5:0.6 10:20 11:1 18:1 
0 0 1 0 0 0 2:0.1 10:20 12:1 22:1 
0 0 1 0 0 0 1:1 10:11 11:1 23:1 
0 0 1 0 0 0 1:0.29411765 5:0.70588235 10:17 11:1 19:1 
0 0 0.5257605393706423 0 0 0 4:1 10:5 14:1 23:1 
0 0 1 0 0 0 2:0.85714286 5:0.14285714 10:7 12:1 24:1 
0 0 1 0 0 0 3:0.5 5:0.5 10:2 13:1 18:1 
0 0 0 0.04209235996476093 0.03667609899742966 0.09985656894360734 3:1 10:3 13:1 22:1 
0.05675536411973119 0.3856857028216253 1 0 0 0 10:8 12:1 19:1 
0 0 1 0 0 0 2:1 10:4 12:1 23:1 
0 0 1 0 0 0 3:0.0625 5:0.9375 10:16 13:1 17:1 
0 0 1 0 0 0 10:1 12:1 20:1 
0 0 1 0 0 0 2:0.58333333 5:0.41666667 10:12 12:1 18:1 
0.8841548846969448 1 0 1 1 0 10:21 11:1 20:1 
0 0.5282015513210221 0 0 0 0 4:0.94871795 10:39 14:1 17:1 
0 0 1 0 0 0 4:0.076923077 5:0.92307692 10:13 14:1 17:1 
0 0 0 0 0 0.001813095205096593 1:1 10:20 11:1 27:1 
0 0 1 0 0 0 4:0.35294118 5:0.64705882 10:17 14:1 17:1 
0 0 0.1249913532622177 0 0 0 3:1 10:12 13:1 22:1 
0 0 1 0 0 0 2:0.875 10:8 12:1 22:1 
0 0 0 0 0.01457329536425646 0 2:1 10:33 12:1 21:1 
0 0 1 0 0 0 3:1 10:17 13:1 23:1 
0 0 0.3470264251283277 0 0 0 4:1 10:17 14:1 24:1 
0 0 1 0 0 0 4:0.052631579 5:0.84210526 10:19 14:1 18:1 
0 0.1455346894807995 1 0 0 0 3:1 10:13 13:1 23:1 
0 0 1 0 0 0 4:0.15384615 5:0.84615385 10:13 14:1 17:1 
0 0 1 0 0 0 3:0.5 5:0.5 10:16 13:1 17:1 
0 0.02576342033910094 0 0.007933313340364989 0 0.00740635393689367 3:1 10:54 13:1 19:1 
0.02044863174311305 0 0 0 0.4303118311362018 0 10:12 11:1 17:1 
0 0 0 0.002513683395069538 0 0 3:1 10:31 13:1 18:1 
0 0 1 0 0 0 2:0.96153846 5:0.038461538 10:26 12:1 17:1 
0 0 0 0.007167354096277875 0.00106484173460474 0 4:1 10:41 14:1 19:1 
0 0 1 0 0 0 3:1 10:5 13:1 23:1 
0 0 1 0 0 0 1:0.94444444 10:18 11:1 23:1 
0 0 1 0 0 0 3:0.5 5:0.5 10:2 13:1 21:1 
0 0 1 0 0 0 10:1 12:1 20:1 
0.3628300237019357 0.4055224032542418 1 0 0 0 10:8 11:1 19:1 
0 0.01533893586611265 1 0 0.02472547155173994 0 5:1 10:9 11:1 17:1 
0 0 1 0 0 0 1:0.1 5:0.9 10:20 11:1 18:1 
0 0 1 0 0 0 2:1 10:6 12:1 24:1 
0 0 0 0 0.0190996057724344 0 2:1 10:8 12:1 30:1 
0 0 1 0 0 0 1:0.8 5:0.2 10:5 11:1 19:1 
0 0 1 0 0 0 5:1 10:5 12:1 18:1 
0.274169097594764 0 0 0 0.2595045115369481 0.07224036750974414 10:6 13:1 19:1 
0 0 1 0 0 0 3:0.4 5:0.4 10:5 13:1 17:1 
0 0 0 0 0 0.004207145632157259 10:13 14:1 17:1 
0 0 0 0.6171492604123039 0.3495705831145272 0.02314458519663095 10:4 14:1 18:1 
0 0.00170471249381488 0.5475780491804954 0 0.9721182786141974 1 10:5 11:1 20:1 
0 0 1 0 0 0 5:1 10:1 13:1 17:1 
0 0.5241628200420199 0 0 0 0 4:0.98181818 5:0.018181818 10:55 14:1 22:1 
0 0 0.3703703932202477 0 0 0 3:1 10:6 13:1 22:1 
0 0 1 0 0 0 4:0.22222222 5:0.66666667 10:9 14:1 18:1 
0 0 1 0 0 0 2:1 10:12 12:1 23:1 
0 0 1 0 0 0 2:0.2 5:0.8 10:20 12:1 18:1 
0 0 1 0 0 0 4:0.33333333 5:0.66666667 10:12 14:1 17:1 
0 0 0 0 0.01199878621731543 0.2947325666932674 10:5 13:1 19:1 
0 0 0 0 0.05442320280634472 0 10:10 11:1 18:1 
0 0 0.899490919096294 0 0 0 2:1 10:16 12:1 22:1 
0 0 1 0 0 0 1:1 10:10 11:1 22:1 
0.02683306666399531 0 0 0.02322686198604005 0.02437698216435067 0.02190727736680914 2:1 10:45 12:1 19:1 
0 0 1 0 0 0 3:0.71428571 5:0.28571429 10:21 13:1 19:1 
0 0 0 0.04022285149145617 0 0 10:3 12:1 18:1 
0 0 1 0 0 0 3:0.375 5:0.625 10:8 13:1 17:1 
0 0 1 0 0.006415491572000538 0 5:1 10:20 13:1 18:1 
0 0 1 0 0 0 2:0.33333333 10:9 12:1 22:1 
0 0 1 0 0 0 1:0.25 5:0.75 10:4 11:1 18:1 
0 0 1 0 0 0 3:0.071428571 5:0.92857143 10:14 13:1 17:1 
0 0 1 0 0 0 2:0.8 5:0.2 10:20 12:1 20:1 
0 0 0 0.003534125085437736 0.003455430782312363 0 2:1 10:40 12:1 17:1 
0 0.03103827502451741 0 0 0 0.1829863586677703 10:13 13:1 17:1 
0 0 1 0 0 0 10:18 12:1 20:1 
0.249326118531432 0 0 0 0.3156147077948269 0 10:11 14:1 17:1 
0 0 1 0 0 0 1:0.4 5:0.6 10:15 11:1 18:1 
0 0.7152880329015542 1 0 0.3967755333183504 0.8626882540500325 10:1 11:1 21:1 
0.007164653321032723 1 0 0.002271430378323838 0.01675001151014734 0.02003974471402453 4:1 10:54 14:1 22:1 
0 0 0 0.008693175462910256 0 0.01268319146560145 3:1 10:32 13:1 19:1 
0 0 1 0 0 0 2:1 10:12 12:1 23:1 
0 0 1 0 0 0 10:17 13:1 19:1 
0 1 0 0 0 0 4:0.5 10:32 14:1 17:1 
0 0 0.8238604227596329 0 0 0 1:1 10:10 11:1 24:1 
0 0 1 0 0 0 10:1 12:1 20:1 
0 0 1 0 0 0 2:1 10:16 12:1 22:1 
0 0 1 0 0 0 2:1 10:10 12:1 23:1 
0 0 0 0.5451600598174307 0.8401399008395557 0.9169835764081761 10:4 12:1 20:1 
0 0 0 0.003402386424951594 0 0.006760483576601516 4:1 10:55 14:1 21:1 
0.007185998769139983 0 0 0.01597008576563546 0.02036607393940364 0.01727031074915031 4:1 10:49 14:1 17:1 
0.01021927468859695 0 0 0 0 0 2:1 10:93 12:1 18:1 
0 0 1 0 0 0 1:0.10526316 5:0.89473684 10:19 11:1 17:1 
0 0 1 0 0 0 3:0.85 5:0.15 10:20 13:1 19:1 
0 0.4003479856656069 0 0 0 0 1:0.92307692 5:0.076923077 10:39 11:1 18:1 
0 0 0 0.04710018950429052 0 0 10:11 11:1 18:1 
0 0 0 0 0.03271434579171436 0 1:1 10:16 11:1 30:1 
0 0.003435490931127144 1 0 0 0 3:1 10:4 13:1 24:1 
0 0 1 0 0 0 2:1 10:16 12:1 22:1 
0 0 1 0 0 0 2:0.058823529 10:17 12:1 22:1 
0 0 0 0 0.2730039534232051 0 3:0.11111111 10:18 13:1 21:1 
0 0 0.2018041844469682 0 0 0 4:1 10:9 14:1 22:1 
0 0.4445475710854018 0 0 0 0 3:1 10:35 13:1 18:1 
0 0 1 0 0 0 2:1 10:16 12:1 22:1 
0 0 1 0 0 0 2:0.57142857 5:0.42857143 10:7 12:1 17:1 
0 0.4715976596823831 1 0 0.556558480894383 0 4:0.0625 10:16 14:1 22:1 
0 0.4087864111130187 0 0 0 0 10:14 14:1 18:1 
0 0.5901559630636594 0 0 0 0 2:0.97560976 10:41 12:1 18:1 
0 0 1 0 0 0 1:0.85714286 10:7 11:1 24:1 
0 0 1 0 0 0 2:1 10:16 12:1 22:1 
0 0 1 0 0 0 2:1 10:16 12:1 22:1 
1 0.3846698466793141 1 1 0.5032396673468615 0.4478558605168877 10:14 11:1 20:1 
0 0 1 0 0 0 1:0.4375 10:16 11:1 23:1 
0.07925061619142816 0.8562676044107203 0 0 0.3823670356243767 0.130431495239237 10:9 14:1 19:1 
0 0 1 0 0 0 1:0.75 5:0.25 10:20 11:1 18:1 
0 0.1672706027123971 0 0 0 0 3:0.97142857 5:0.028571429 10:35 13:1 17:1 
0 0 1 0 0 0 2:0.125 5:0.875 10:8 12:1 20:1 
0 0 1 0 0 0 3:0.1 5:0.9 10:20 13:1 17:1 
0.2171213585287636 0 1 0 0 0 10:16 13:1 19:1 
0 0.2047604419262694 0 0 0 0 4:1 10:39 14:1 19:1 
0 0 0 0 0.04319018256555887 0 10:10 12:1 18:1 
0 1 0 0 0 0 2:1 10:101 12:1 19:1 
0.01638929957625843 0.7600342018296226 0.09477150745640091 0 0 0 1:1 10:38 11:1 20:1 
0 1 0 0 0 0 4:0.94871795 10:39 14:1 17:1 
0 0.7280691367263191 1 0 0.3316472282894718 0 10:1 12:1 22:1 
0 0 1 0 0 0 2:1 10:16 12:1 22:1 
0.05440308282353864 0.6470737860934923 1 0.03395864923090197 0.1237561937634478 0.02645841409049014 10:10 11:1 23:1 
0.008230518894629937 0.559388054618239 0 0.00183470818070464 0.007124869563869459 0.00664201142458533 2:1 10:52 12:1 19:1 
0 0 1 0 0 0 1:1 10:10 11:1 22:1 
0 0 1 0 0 0 4:0.75 5:0.25 10:20 14:1 18:1 
0 0 0.03612530505265762 0 0 0 1:1 10:4 11:1 24:1 
0.07471054905005375 0 0 0 0 0 2:1 10:24 12:1 22:1 
0 0 1 0 0 0 2:0.875 10:8 12:1 23:1 
0 0 1 0 0 0 1:0.14285714 10:7 11:1 23:1 
0 0 0.1548872281711693 0 0 0 2:1 10:5 12:1 24:1 
0 0 1 0 0 0 2:1 10:4 12:1 24:1 
0 0 1 0 0 0 2:0.66666667 5:0.33333333 10:6 12:1 18:1 
0 0.8288990546626831 0 0 0.001130140825223536 0.008661957958022527 2:1 10:38 12:1 20:1 
0 0 1 0 0 0 1:0.8 5:0.2 10:20 11:1 19:1 
0 0 0 0 0.003366703194525092 0.015164613156402 3:1 10:96 13:1 18:1 
0 0.01504411660009444 1 0.5250367724655619 0 0.03394011822958597 10:2 11:1 24:1 
0.002287081889870231 0 0.6892833146210295 0 0 0 4:1 10:16 14:1 25:1 
0 0.4576132689972713 0 0 0 0 3:1 10:55 13:1 19:1 
0 0.8254100059571773 0 0.00450739018314408 0.01299050623538806 0 1:1 10:41 11:1 21:1 
0 0 1 0 0 0 2:1 10:12 12:1 23:1 
0 0.1072458204401019 0 0 0 0 2:0.94736842 10:38 12:1 19:1 
0 0 1 0 0 0 3:0.41176471 5:0.58823529 10:17 13:1 17:1 
0 0 1 0 0 0 4:0.66666667 5:0.33333333 10:12 14:1 18:1 
0 0 1 0 0 0 2:1 10:4 12:1 24:1 
0 0 1 0 0 0 1:0.8125 5:0.1875 10:16 11:1 19:1 
0 0 1 0 0 0 2:0.31578947 5:0.52631579 10:19 12:1 17:1 
0 0 1 0 0 0 1:0.75 5:0.25 10:20 11:1 23:1 
0.02269130737891781 1 0 0.09718086924339026 0.02083847668035385 0 4:0.086956522 10:23 14:1 18:1 
0 0 1 0 0 0 2:0.9 10:10 12:1 23:1 
0.005806920651795919 1 0 0.006049707577094943 0.007631595590504146 0.01099210972436213 3:1 10:89 13:1 18:1 
0 0 1 0 0 0 4:0.85 5:0.15 10:20 14:1 20:1 
1 1 0.4894407958076302 0.3141726822752964 0.4562937113304263 0.8046894322560656 10:8 13:1 21:1 
0.002355183901514904 0 1 0 0.002097547554028835 0.01209247800989706 10:10 12:1 19:1 
0 0.3991096342011074 0 0 0 0 10:15 12:1 18:1 
0 0.02013581261204164 0 0 0.06014263005298852 0 10:9 11:1 18:1 
0 0 1 0 0 0 2:0.41176471 5:0.58823529 10:17 12:1 17:1 
0.3295542677173391 0.4592045691865954 1 0.7504067677804398 0.9065134862315196 0.6902437350496593 3:0.076923077 10:13 13:1 22:1 
0.7710551932223435 0.3420608357586433 1 0.544134095575993 0.9561202158452499 1 10:1 14:1 21:1 
0 0 0.3749106682443265 0 0 0 1:1 10:12 11:1 24:1 
0 0.318083016880719 0 0 0 0 4:0.95121951 10:41 14:1 17:1 
0 0 1 0 0 0 4:0.1 5:0.9 10:20 14:1 22:1 
0.003257878975708434 0 0.6398885941666642 0 0.002581379352572107 0 2:1 10:37 12:1 20:1 
0.2345312666583106 0.7963165562519073 1 0.7158143652456294 0.5109280290140871 0.06037461694506981 4:0.125 10:8 14:1 22:1 
0 0 0.01379593858782752 0 0 0 4:1 10:26 14:1 17:1 
0 0 1 0 0 0 3:0.76470588 5:0.23529412 10:17 13:1 20:1 
0 0 1 0 0 0 1:0.66666667 5:0.33333333 10:18 11:1 18:1 
0 0.442631682957011 0 0 0 0 2:1 10:88 12:1 18:1 
0 0.9300935176122107 0 0.002947278261143808 0.004080031916547456 0.004023227013891783 2:1 10:92 12:1 18:1 
0 0 0.7209565190834054 0 0 0 1:1 10:9 11:1 22:1 
0 0 0.1870432816678989 0 0 0 2:1 10:6 12:1 23:1 
0 0 1 0 0 0 3:0.63636364 5:0.36363636 10:11 13:1 17:1 
0 0 1 0 0 0 2:0.8 10:10 12:1 24:1 
0.04958052104084867 0.07891826647348704 0 0 0.6886108419323308 0 10:16 11:1 21:1 
0 0 1 0 0 0 1:0.25 10:4 11:1 22:1 
0.01439956645510422 0 0 0 0.001914496738739495 0.002827596945662703 3:1 10:96 13:1 17:1 
0 0 0 0.1596218824353312 0 0.004238336398434877 1:1 10:24 11:1 21:1 
0 0 1 0 0 0 4:0.125 5:0.875 10:8 14:1 17:1 
0.03070402178948175 0 0 0.02721600283297209 0.03054880583870972 0.03258940675868439 4:1 10:66 14:1 17:1 
0 0 1 0 0 0 2:1 10:1 12:1 26:1 
0 0 1 0 0 0 2:0.83333333 10:6 12:1 23:1 
0.05922975215579383 0.2952617003569221 0 0 0 0 10:14 12:1 18:1 
0.003763857166377248 0.1900028764456408 0 0.01995854095593716 0.02088680637866128 0.0230290158796787 1:1 10:59 11:1 20:1 
0 0 1 0 0 0 3:0.8 5:0.2 10:15 13:1 20:1 
0.08570912167858502 0.07483309653270498 0 0.07986008787976054 0.08086018879590107 0.08694542881882818 3:1 10:82 13:1 18:1 
0 0 0.9939443522551209 0 0 0 3:0.75 5:0.25 10:12 13:1 17:1 
0 0 1 0 0 0 1:0.6 5:0.4 10:20 11:1 17:1 
0 0.5257317013356129 0 0 0 0.003266015622450642 1:1 10:28 11:1 19:1 
0 0 1 0 0 0 2:0.9375 10:16 12:1 22:1 
0 0 1 0 0.7798047523423444 0.0719627370901022 10:18 13:1 20:1 
0 0 1 0 0 0 2:0.058823529 10:17 12:1 20:1 
0 0 1 0 0 0 2:0.5 5:0.5 10:6 12:1 20:1 
0 0 1 0 0 0 3:0.9 5:0.05 10:20 13:1 24:1 
0 0 1 0 0 0 1:1 10:9 11:1 22:1 
0 1 0.02611748202017371 0 0 0 4:0.96296296 10:54 14:1 21:1 
0.02469093198959499 0.4449614885400863 0 0.02363122467156892 0.01824304129601469 0.02763034459871195 3:1 10:59 13:1 19:1 
0 0 1 0 0 0 10:17 13:1 19:1 
0 0 1 0 0 0 5:1 10:1 12:1 18:1 
0 0 1 0 0 0 3:0.10526316 5:0.89473684 10:19 13:1 17:1 
0 0 1 0 0 0 2:1 10:12 12:1 23:1 
0 0.5927395458304215 0 0.007818727852820569 0.001296203436997102 0 3:1 10:38 13:1 19:1 
0 0 0 0.1326082131614929 0 0.0587366192733008 2:1 10:23 12:1 21:1 
0.01928511968220086 0 1 0 0 0 5:1 10:1 11:1 18:1 
0 0 1 0 0 0 10:16 11:1 22:1 
0 0 1 0 0.004869913911419949 0 10:19 12:1 22:1 
0 1 0 0 0 0.004450332123308216 1:1 10:34 11:1 21:1 
0.003431276403248689 0.3622015676558905 0 0.55163538549163 0 0 10:14 13:1 19:1 
0.1244730359866766 0 0 0.3084441045371669 0 0.07718010165435932 4:1 10:23 14:1 21:1 
0 0.02801431047281896 0.637430433436474 0 0 0 3:1 10:6 13:1 24:1 
0 0.1541210398644084 1 0 0.0149516084902761 0.1060105129260678 5:1 10:1 13:1 21:1 
0 0 1 0 0 0 1:0.2 10:5 11:1 23:1 
0 0 0.03935810820292678 0 0 0 2:1 10:12 12:1 24:1 
0 0 1 0 0 0 2:0.63157895 5:0.36842105 10:19 12:1 21:1 
0 0 1 0 0 0 1:0.4 5:0.6 10:20 11:1 18:1 
0 0 0 0.2515153111887365 0 0 10:4 12:1 18:1 
0 0 1 0.003160337950851127 0 0 5:1 10:1 12:1 18:1 
0 0 0 0 0.3678462255570842 0 10:5 13:1 18:1 
0 0 1 0 0 0 2:0.92857143 10:14 12:1 22:1 
0 0 1 0 0 0 4:0.55 5:0.4 10:20 14:1 18:1 
0.00260762412931624 0 0 0 0 0 2:1 10:38 12:1 18:1 
0 0.8048322321865518 0 0 0 0 4:0.93333333 10:30 14:1 17:1 
0.4504666367042608 0.07305682929175666 0 0.07215093327917053 0.4405822461999247 0.4062911975395382 10:4 11:1 20:1 
0 0 1 0 0 0 1:0.71428571 5:0.28571429 10:7 11:1 19:1 
0 0 1 0 0 0 2:0.95 5:0.05 10:20 12:1 24:1 
0 0 1 0 0 0 4:1 10:17 14:1 23:1 
0.1032094895519319 1 1 0 0 0 3:0.88461538 10:26 13:1 18:1 
0 0 1 0 0 0 3:0.83333333 5:0.16666667 10:18 13:1 24:1 
0.01081913907170616 0.5115254241835097 0 0 0 0 4:1 10:40 14:1 19:1 
0 0 1 0 0 0 1:0.68421053 5:0.31578947 10:19 11:1 23:1 
0 0 1 0 0 0 3:0.45 5:0.55 10:20 13:1 17:1 
0 0 1 0.06312370679458484 0 0 10:20 14:1 22:1 
0 0 1 0 0 0 5:0.75 10:4 13:1 18:1 
0 0 1 0 0 0 1:0.82352941 10:17 11:1 22:1 
0 0 1 0 0 0 3:0.95 5:0.05 10:20 13:1 23:1 
0 0 1 0 0 0 2:0.11111111 10:18 12:1 22:1 
0 0 1 0 0 0 1:0.63157895 5:0.31578947 10:19 11:1 19:1 
0 0 1 0 0 0 2:0.66666667 5:0.33333333 10:3 12:1 24:1 
0.1699687047386134 0.2400684203285866 0 0 0 0 10:14 13:1 17:1 
0 1 0 0 0 0 4:0.88571429 10:35 14:1 18:1 
0.06888455476455349 0 0 0.6686514845573722 0.1084059924722151 0.1055791607550201 10:12 14:1 19:1 
0 0 0.512107663103482 0 0 0 4:1 10:2 14:1 22:1 
0 0.2347679394000396 0 0 0 0 10:10 12:1 17:1 
0 0.0485776231330489 1 0 0 0 2:1 10:11 12:1 24:1 
0.2347949599182733 0 1 0 0.2520619102232612 0.2127661309301338 10:19 11:1 23:1 
0 0 1 0 0 0 2:1 10:4 12:1 23:1 
0 0 0 0.002568042617956367 0 0 2:1 10:34 12:1 17:1 
0 0 1 0 0 0 3:0.5 5:0.5 10:2 13:1 18:1 
0 0 1 0 0 0 4:1 10:10 14:1 23:1 
0 0 1 0 0 0 1:0.26315789 5:0.73684211 10:19 11:1 17:1 
0 0 1 0 0 0 5:1 10:5 13:1 17:1 
0 0 1 0 0 0 10:17 12:1 20:1 
0 0 0 0.254458101564848 0 0.07822282992515474 3:1 10:22 13:1 21:1 
0 0 1 0 0 0 4:0.63157895 5:0.36842105 10:19 14:1 18:1 
0 0 1 0 0 0 1:0.9 5:0.1 10:10 11:1 22:1 
0 0 1 0 0 0 2:1 10:1 12:1 26:1 
0 0 1 0 0 0 3:0.26315789 5:0.73684211 10:19 13:1 17:1 
0 0 1 0 0 0 1:0.5 5:0.5 10:2 11:1 18:1 
0 0 1 0 0 0 1:1 10:54 11:1 17:1 
0.01324437662500163 0 1 0 0 0 5:1 10:1 14:1 17:1 
0 0 0.089175238924408 0 0 0 2:1 10:1 12:1 25:1 
0 0 1 0 0 0 3:0.25 5:0.75 10:4 13:1 17:1 
0 0 1 0 0 0 1:0.5 5:0.5 10:2 11:1 17:1 
0 0 0.6426527684967072 0 0 0 10:17 12:1 19:1 
0 0 1 0 0 0 1:0.52631579 5:0.47368421 10:19 11:1 17:1 
0.1641196976681778 0.2284680829603514 0 0 0 0 10:16 14:1 19:1 
0 0 0 0 0.007986635544165878 0 2:1 10:25 12:1 20:1 
0 0 1 0 0 0 1:0.5 5:0.5 10:16 11:1 17:1 
0 0 1 0 0 0 3:0.73684211 5:0.26315789 10:19 13:1 18:1 
0.03346779602874142 0 0 0 0 0 4:1 10:22 14:1 22:1 
0 0 0 0.8275847408643034 0 0 10:20 14:1 21:1 
0.004291676874029629 0 0 0 0 0 4:1 10:27 14:1 20:1 
0 0 1 0 0 0 1:1 10:10 11:1 22:1 
0.9732511999586713 0.3292984241686464 0 1 0.2446245538523029 1 10:20 14:1 21:1 
0 0 1 0 0 0 2:0.375 5:0.625 10:8 12:1 18:1 
0.1775876312332452 0 0 0 0 0.008639926407237567 3:1 10:22 13:1 22:1 
0 0 1 0 0 0 1:0.66666667 5:0.33333333 10:3 11:1 18:1 
0 0.1379803471337123 1 0 0.04909958334755249 0.01001782991165285 4:1 10:1 14:1 22:1 
0.01556908758117273 0 1 0.0298867940998622 0 0 5:1 10:1 12:1 20:1 
0 0 1 0 0 0 3:0.4 5:0.4 10:15 13:1 18:1 
0 0 0.9325149914398329 0 0 0 1:1 10:12 11:1 23:1 
0 0 1 0 0 0 1:0.5 5:0.5 10:2 11:1 17:1 
0 0 1 0 0 0 4:1 10:2 14:1 22:1 
0 0 1 0 0 0 2:0.47058824 10:17 12:1 24:1 
0 0 0.4547806635109006 0 0 0 2:0.1 10:10 12:1 19:1 
0.02797924983685651 0 0 0.0202170095345788 0.0117100614411997 0.01559232199224082 1:1 10:45 11:1 20:1 
0 0 0.2594226442434957 0 0 0 10:1 14:1 19:1 
0 0 1 0 0 0 1:0.72727273 5:0.27272727 10:11 11:1 17:1 
0 0 0.2163443322665977 0 0 0 2:1 10:1 12:1 24:1 
0 0 1 0 0 0 10:1 14:1 19:1 
0 0 1 0 0 0 4:0.94444444 10:18 14:1 23:1 
0 0 1 0 0 0 1:0.25 5:0.75 10:4 11:1 17:1 
0 0 1 0 0 0 2:1 10:10 12:1 25:1 
0 0 1 0 0 0 1:0.375 5:0.625 10:8 11:1 18:1 
0 0 1 0 0 0 3:1 10:10 13:1 22:1 
0.4157721563821369 0 0 0 0 0 1:0.33333333 10:21 11:1 22:1 
0 0 1 0 0 0 1:0.57142857 5:0.42857143 10:14 11:1 17:1 
0 0.457105316554508 0 0 0 0 3:1 10:36 13:1 22:1 
0 0 0 0 0 0.1194134085627285 4:1 10:3 14:1 22:1 
0 0 1 0 0 0 1:1 10:6 11:1 24:1 
0 1 0 0 0 0 2:0.94736842 10:57 12:1 17:1 
0 0 1 0 0 0 2:1 10:3 12:1 22:1 
0 0 0.725117287538475 0 0 0 2:1 10:4 12:1 23:1 
0 0 0.9160692228330799 0 0 0 1:1 10:17 11:1 23:1 
0.002748903960335447 1 0 0.003210808617272673 0.003776603186185501 0.0011268014288765 3:1 10:101 13:1 18:1 
0 0 0.08411250435508355 0 0 0 2:1 10:5 12:1 23:1 
0 0.4111531131437178 0 0 0 0 3:1 10:88 13:1 18:1 
0.04261522979305728 0 0 0 0 0 10:10 14:1 18:1 
0 0 1 0 0 0 1:1 10:54 11:1 17:1 
0 0 1 0 0 0 1:1 10:17 11:1 23:1 
0 0 1 0 0 0 2:0.61111111 5:0.38888889 10:18 12:1 17:1 
0 0.2998255126150278 0 0.01796340882216888 0.01658923387488191 0.009214362191631067 2:1 10:59 12:1 18:1 
0 0 0.5990266882416916 0 0 0 2:1 10:16 12:1 23:1 
0 0 1 0 0 0 2:1 10:1 12:1 25:1 
0 0 1 0 0 0 2:0.2 5:0.8 10:5 12:1 23:1 
0 0 0 0 0.01249915508330843 0.008532730002520065 1:1 10:49 11:1 18:1 
0 0.6246456981901404 1 0 0 0 10:17 14:1 23:1 
0.005303067293922934 0 0 0 0 0 4:1 10:95 14:1 18:1 
0 0 1 0 0 0 1:0.89473684 10:19 11:1 23:1 
0 0 0 0 0.04920784876133388 0 10:18 12:1 18:1 
0 0 1 0 0 0 2:0.75 5:0.25 10:20 12:1 21:1 
0 0 0 0 0.01002141206412279 0 10:11 11:1 17:1 
0.0524610527105973 1 0 0.04827786928746598 0.05211872886024036 0.05292394149694736 1:0.99019608 10:102 11:1 19:1 
0 0 1 0 0 0 3:0.33333333 5:0.66666667 10:3 13:1 17:1 
1 0 0.2770007066154022 0.3559330400551813 0.7099910971181552 0.8723015674333666 10:20 14:1 21:1 
0 0 0 0 0.2417234482104303 0 10:11 12:1 17:1 
0 0 1 0 0 0 5:1 10:5 11:1 17:1 
0.002067375184224167 0 0 0 0 0 3:1 10:41 13:1 18:1 
0 0.01155249805494007 0 0 0 0 1:1 10:66 11:1 18:1 
0 0 1 0 0 0 4:1 10:26 14:1 17:1 
0 0 1 0 0 0 3:0.66666667 5:0.33333333 10:3 13:1 17:1 
0 0 0 0 0 0.05120267782654993 10:13 12:1 18:1 
0 0.808521375361951 0 0.001553792570181278 0.005781177902691642 0.001018712601989666 3:1 10:55 13:1 20:1 
0 0 1 0 0 0 2:1 10:16 12:1 23:1 
0 0 1 0 0 0 3:0.8 5:0.2 10:5 13:1 20:1 
0 0.08332873203396091 0 0 0 0 10:7 14:1 18:1 
0 0 1 0 0 0 10:1 14:1 19:1 
0 0 1 0 0 0 2:0.66666667 10:3 12:1 22:1 
0.007724841092951059 0 0 0 0 0 4:1 10:28 14:1 18:1 
0 0 1 0 0 0 1:0.8 5:0.2 10:20 11:1 19:1 
0 1 0 0 0 0.008822429765838097 4:1 10:101 14:1 18:1 
0 0.241933452751592 0 0 0 0 2:1 10:50 12:1 18:1 
0 0 1 0 0 0 2:1 10:16 12:1 22:1 
0 0 1 0 0 0 1:1 10:17 11:1 23:1 
0 0 1 0 0 0 5:1 10:3 11:1 17:1 
0 0 1 0 0 0 4:0.35 5:0.65 10:20 14:1 17:1 
0.01484317049023496 0 0 0 0 0.003636340587515302 1:1 10:24 11:1 22:1 
0 0 0 0 0 0.005985412583327914 3:1 10:21 13:1 23:1 
0.136994872014662 0 0 0.3386128955517917 0 0 10:19 11:1 20:1 
0 0 -0 0 0.1902157314498182 0 10:19 11:1 21:1 
0 0 1 0 0 0 2:0.3125 10:16 12:1 23:1 
0 0 1 0 0 0 1:1 10:6 11:1 25:1 
0 0.2494903632615615 0 0 0 0 2:1 10:88 12:1 17:1 
0 0 1 0 0 0 5:0.33333333 10:3 12:1 17:1 
0 0 1 0 0 0 2:1 10:16 12:1 22:1 
0 0 1 0 0 0 2:1 10:1 12:1 24:1 
0 0.5675387358744903 0 0 0.006027058031503187 0 10:8 12:1 18:1 
0 0.0005072093112746673 0 0.4951593006705557 0 0 10:14 14:1 19:1 
0 0 1 0 0 0 2:1 10:16 12:1 23:1 
0 0 0.1081806326301144 0 0 0 1:1 10:5 11:1 24:1 
0 0 1 0 0 0 10:17 11:1 20:1 
0 0 1 0 0 0 1:1 10:12 11:1 23:1 
0 0 1 0 0 0 2:1 10:16 12:1 22:1 
0 0 0 0.148383644853944 0.02491908365516741 0.308053407218939 10:17 13:1 20:1 
0 0 1 0 0 0 2:0.11764706 10:17 12:1 24:1 
0 0 0 0 0.1530038660270674 0 10:9 14:1 17:1 
0 0 0.1696962494323419 0 0 0 10:1 11:1 20:1 
0 0 0 0.002223524209813995 0 0 2:1 10:34 12:1 18:1 
0 0 1 0 0 0 4:0.29411765 5:0.70588235 10:17 14:1 17:1 
0 0 1 0 0 0 2:0.8 5:0.2 10:10 12:1 19:1 
0 0 1 0 0 0 2:0.25 10:4 12:1 22:1 
0 0 1 0 0 0 1:1 10:17 11:1 23:1 
0 0 0.9105555698503318 0 0 0 1:1 10:6 11:1 23:1 
0.04997177847612853 0 0 0.3568931285903313 0 0 10:20 12:1 21:1 
0 0 1 0 0 0 1:1 10:10 11:1 24:1 
0 0 1 0 0 0 3:0.5 5:0.5 10:2 13:1 23:1 
0 0 1 0 0 0 1:0.85 5:0.15 10:20 11:1 21:1 
0 0 0 0 0.05971118481490278 0 10:18 12:1 19:1 
0 0 1 0 0 0.05592022987970634 10:19 12:1 25:1 
0 0 1 0 0 0 1:0.52941176 10:17 11:1 24:1 
0 0.3198917221765649 1 0 0 0.01527696837531104 10:7 11:1 20:1 
0 0 1 0 0 0 5:0.5 10:20 12:1 19:1 
0 0 1 0 0 0 1:1 10:17 11:1 23:1 
0 0 1 0 0 0 2:1 10:16 12:1 23:1 
0 0 1 0 0 0 1:0.5 5:0.5 10:2 11:1 17:1 
0 0 0 0.06381538994632263 0 0 10:11 13:1 18:1 
0 0 1 0 0 0 3:0.27777778 5:0.44444444 10:18 13:1 17:1 
0 0 1 0 0 0 10:1 11:1 22:1 
0.03248371301802629 0 0 0 0.2997936430418413 0.07376086463810201 10:19 11:1 19:1 
0 0 0 0.06036396845547935 0 0 10:19 14:1 20:1 
1 0.2050545230290435 0 0.002496632047191131 0.001150673431441063 0.04044613955290255 10:15 14:1 20:1 
0 1 0.8899039790933532 0.1929369422337225 0.1105260509982964 0.006291065733925257 10:1 14:1 19:1 
0 0.03122754497914788 1 0 0 0 5:1 10:8 12:1 17:1 
0 0 1 0 0 0 1:1 10:17 11:1 23:1 
0 0 1 0 0 0 1:1 10:3 11:1 23:1 
0 0 1 0 0 0 1:0.4 5:0.6 10:15 11:1 18:1 
0 0 1 0 0 0 2:0.5 5:0.5 10:20 12:1 23:1 
0 0 1 0 0 0 2:1 10:1 12:1 24:1 
0 0 1 0.004658100405582359 0.007681498119058956 0 5:1 10:1 12:1 19:1 
0 0 1 0 0 0 4:0.73684211 5:0.26315789 10:19 14:1 18:1 
0 1 0 0 0 0 1:0.96428571 10:28 11:1 17:1 
0 0 1 0 0 0 1:0.85714286 10:14 11:1 22:1 
0 0 1 0 0 0 2:0.72727273 5:0.27272727 10:11 12:1 20:1 
0 0 1 0 0 0 2:0.7 5:0.3 10:10 12:1 19:1 
0 0 1 0 0 0 3:1 10:1 13:1 22:1 
0 0 1 0 0 0 4:1 10:5 14:1 23:1 
0 0 1 0 0 0 2:0.4375 5:0.5625 10:16 12:1 17:1 
0 0 1 0 0 0 5:1 10:1 12:1 17:1 
0 0.2246847635744364 0 0 0 0 10:8 11:1 17:1 
0 0 1 0 0 0 2:0.25 5:0.75 10:20 12:1 17:1 
0.002729887146526461 0.7179681653477112 0 0 0 0 3:1 10:39 13:1 18:1 
0 0 1 0 0 0 1:0.78571429 5:0.21428571 10:14 11:1 24:1 
0 0 1 0 0 0 2:0.25 5:0.75 10:4 12:1 24:1 
0.7317697496139337 0.3584400620489758 0 0.6014529846172106 0.8450925529181316 1 10:7 14:1 20:1 
0 0.1003865651531616 0 0 0 0 10:7 11:1 17:1 
0 0 0.9834169428938996 0 0 0 4:1 10:26 14:1 17:1 
0 0 0.341359211335711 0 0 0 1:1 10:16 11:1 24:1 
0 1 0 0 0 0 2:0.2173913 10:23 12:1 17:1 
0 0 1 0 0 0 2:0.9 10:10 12:1 22:1 
0 0 1 0 0 0 2:1 10:1 12:1 24:1 
0 0 1 0 0 0 1:1 10:17 11:1 23:1 
0 0 0.02972826811902247 0 0 0 10:1 11:1 19:1 
0 0 0.6032673088417188 0 0 0 10:20 13:1 20:1 
0.03900176644964931 0.4255448965574826 0 0 0 0 2:0.94230769 10:52 12:1 17:1 
0.8917089208877269 0.6446631515102652 1 0.3864359319470382 0.9137983837535403 0.2815196920805899 10:20 12:1 22:1 
0 0 1 0 0 0 2:1 10:4 12:1 24:1 
0 0 0 0 0.008492683409270193 0 2:1 10:38 12:1 19:1 
0 0.4721138377252255 0 0 0 0 1:1 10:58 11:1 19:1 
0 0 1 0 0 0 10:1 11:1 20:1 
0 0 0 0.001745254054593383 0 0 2:1 10:34 12:1 20:1 
0 0 1 0 0 0 5:1 10:1 12:1 17:1 
0 0 1 0 0 0 4:0.6 5:0.4 10:20 14:1 17:1 
0 0 1 0 0 0 2:1 10:1 12:1 24:1 
0 0 1 0 0 0 1:0.055555556 10:18 11:1 23:1 
0 0 0 0.1336891454252964 0.4488081398913313 0.4594866879310068 10:11 13:1 19:1 
0 0.2846341534735173 0 0.4459972548308015 0 0 10:14 11:1 19:1 
0 0 0 0 0.1477708089911275 0 10:19 13:1 18:1 
0 0.05979370467637624 0 0 0 0 10:9 11:1 17:1 
0 0 1 0 0 0 2:1 10:16 12:1 22:1 
0 0 1 0 0 0 2:1 10:54 12:1 17:1 
0 0 1 0 0 0 2:0.44444444 5:0.55555556 10:18 12:1 22:1 
0.6226205498078505 0 0 0 0 0 10:2 13:1 20:1 
0 0 1 0 0 0 2:1 10:16 12:1 23:1 
0 0 1 0 0 0 1:1 10:3 11:1 23:1 
0 0 1 0 0 0 1:1 10:17 11:1 23:1 
0 1 0 0 0 0 3:0.96774194 10:93 13:1 17:1 
0 0 0.4950344507496622 0 0 0 1:1 10:1 11:1 25:1 
0 0 0.9856598644818789 0 0 0 2:1 10:16 12:1 23:1 
0 0 0.3607793770661462 0 0 0 1:1 10:54 11:1 18:1 
0 1 0 0 0 0 1:0.89473684 10:38 11:1 18:1 
0 0 1 0 0 0 1:0.42105263 10:19 11:1 22:1 
0 0 0 0 0.03975335594414317 0 10:18 11:1 18:1 
0 0 1 0 0 0 2:1 10:5 12:1 23:1 
0 0 1 0 0 0 4:0.7 5:0.3 10:20 14:1 20:1 
0.04801921100498368 0 0 0.06041773906292839 0.05940986237015975 0.07412628269604637 1:1 10:1 11:1 30:1 
0 0 1 0 0 0 1:0.52941176 10:17 11:1 22:1 
0 0 1 0 0 0 1:0.94117647 10:17 11:1 22:1 
0 0 0.6121483527312602 0 0 0 1:1 10:5 11:1 22:1 
0 0 1 0 0 0 10:1 12:1 20:1 
0 0 1 0 0 0 1:0.57142857 5:0.42857143 10:14 11:1 17:1 
0.007556690489045508 0 0 0.002927973130329488 0 0.01660113171460899 1:1 10:39 11:1 21:1 
0 0 1 0 0 0 2:0.33333333 5:0.66666667 10:3 12:1 19:1 
0 0 0 0 0.0194768457407042 0 4:1 10:20 14:1 29:1 
0 0 0 0 0.03151632936096956 0 10:10 14:1 17:1 
0 0 1 0 0 0 2:0.11111111 10:9 12:1 20:1 
0 0 1 0 0 0 2:1 10:12 12:1 23:1 
0 0 1 0 0 0 1:1 10:12 11:1 23:1 
0 0 1 0 0 0 3:1 10:1 13:1 22:1 
0 0 1 0 0 0 1:1 10:5 11:1 22:1 
0 0 1 0 0 0 1:1 10:1 11:1 25:1 
0 0 1 0 0 0 1:1 10:17 11:1 23:1 
0 0 1 0 0 0 2:0.5 5:0.5 10:2 12:1 17:1 
0.006821231835569545 0.6262544293760931 1 0 0 0.04633037022917157 10:16 12:1 24:1 
0 0 0.1551547167586095 0.001414987941783157 0 0 3:1 10:36 13:1 17:1 
0.002353676853883062 0 0 0.1533162287844933 0.03936201227000047 0 10:12 12:1 17:1 
0 0 1 0 0 0 1:1 10:1 11:1 25:1 
0 0 1 0 0 0 2:0.28571429 5:0.71428571 10:14 12:1 17:1 
0 0 1 0 0 0 2:1 10:1 12:1 24:1 
0 0 1 0 0 0 1:0.25 10:4 11:1 22:1 
0 0 1 0 0 0 2:0.92857143 10:14 12:1 23:1 
0.1920050977429955 0 1 0 0 0.4920350204909109 10:5 12:1 19:1 
0 0 1 0 0 0 3:1 10:10 13:1 22:1 
0 0 0.8698114970482946 0 0 0 1:1 10:6 11:1 22:1 
0 0 1 0 0 0 2:1 10:16 12:1 22:1 
0 0 1 0 0 0 4:1 10:9 14:1 22:1 
0 0 0 0 0.001644733018224726 0 3:1 10:34 13:1 18:1 
0 0.01315832033420751 0 0 0 0 10:8 13:1 17:1 
0 0.1109279054054295 0 0 0.01608670051677838 0.008715892554405077 3:1 10:94 13:1 17:1 
0 0.2642326804818917 0 0 0 0 1:1 10:54 11:1 19:1 
0 0 1 0 0 0 1:1 10:17 11:1 23:1 
0 0 0.9447237285777826 0 0 0 4:1 10:36 14:1 17:1 
0 0 1 0 0 0 10:20 13:1 20:1 
0 0 0.5079045928688228 0 0 0 1:1 10:10 11:1 23:1 
0 0 1 0 0 0 2:1 10:16 12:1 22:1 
0 0 0.3919680823456932 0 0 0 1:1 10:26 11:1 17:1 
0 0 0 0 0.3403541031131033 0 2:0.125 10:16 12:1 21:1 
0 0.003461505586885264 1 0 0 0 4:1 10:5 14:1 23:1 
0 0 1 0 0 0 4:0.11111111 5:0.88888889 10:9 14:1 17:1 
0 0 1 0 0 0 1:1 10:10 11:1 24:1 
0 0 1 0 0 0 2:1 10:12 12:1 23:1 
0 0 1 0 0 0 4:0.875 10:16 14:1 22:1 
0 0 1 0 0 0 2:0.94117647 10:17 12:1 22:1 
0 0 1 0 0 0 1:1 10:16 11:1 24:1 
0.0006661025662514471 0 0 0 0 0 2:1 10:41 12:1 18:1 
0 0 1 0 0 0 2:1 10:3 12:1 22:1 
0 0 1 0 0 0 2:0.35 5:0.65 10:20 12:1 18:1 
0 0 1 0 0 0 1:1 10:17 11:1 23:1 
0 0 0 0.003986934976408197 0 0.00321953185518721 3:1 10:30 13:1 18:1 
0 1 0 0 0 0 3:0.97435897 10:39 13:1 17:1 
0.7697041905340292 0.9886878915255587 1 0.8862111579930276 0.7699783225359692 0.1941483267280572 10:20 13:1 22:1 
0 0 0.325368413885651 0 0.04599939550847169 0 10:4 12:1 19:1 
0.001422909275099547 0 0 0 0 0 1:1 10:38 11:1 17:1 
0 0 1 0 0 0 1:0.57142857 5:0.42857143 10:7 11:1 18:1 
0 0 0.1608519646962427 0 0 0 4:1 10:10 14:1 22:1 
0 0 1 0 0 0 3:0.625 5:0.375 10:8 13:1 17:1 
0 0 1 0 0 0 1:1 10:6 11:1 22:1 
0 0 1 0 0 0 2:1 10:16 12:1 22:1 
0 0.5100644620390155 1 0 0 0 10:6 12:1 22:1 
0 0 1 0 0 0 2:0.45454545 5:0.54545455 10:11 12:1 22:1 
0 0 1 0 0 0 2:0.91666667 5:0.083333333 10:12 12:1 22:1 
0 0 0 0 0.0459442426078564 0.1273554579981747 10:19 13:1 19:1 
0 0 1 0 0 0 1:0.82352941 5:0.17647059 10:17 11:1 23:1 
0 0 1 0 0 0 1:0.89473684 5:0.10526316 10:19 11:1 24:1 
0 0 1 0 0 0 1:1 10:10 11:1 24:1 
0 0 0.3523551722636322 0 0 0 10:1 12:1 19:1 
0.1094316899226533 0.3872315287812966 0 0 0 0 10:14 12:1 17:1 
0.3883692961442773 0 1 1 0.9683764498758569 0.3612244047815999 2:0.18181818 10:11 12:1 22:1 
0 0 1 0 0 0 4:0.35294118 5:0.64705882 10:17 14:1 17:1 
0 0 0.9821276011125137 0 0 0 2:1 10:1 12:1 26:1 
0 0 1 0 0 0 4:1 10:2 14:1 23:1 
0 0 0.4650015840066761 0 0 0 1:1 10:1 11:1 23:1 
0 0.4314407775826236 1 0.06875041990850761 0.3468591914391562 0.4332378846872852 10:1 11:1 19:1 
0 0 1 0 0 0 1:1 10:17 11:1 23:1 
0.04226394601163538 0 0.3284885964668107 0 0 0 4:1 10:13 14:1 24:1 
0 0 1 0 0 0 1:0.125 10:16 11:1 22:1 
0 0.3834652176591086 1 0 0.4755080338854503 0.2619627533440145 10:7 12:1 20:1 
0 0 0.004241435976137823 0 0 0 2:1 10:1 12:1 23:1 
0 0 1 0 0 0 1:1 10:11 11:1 24:1 
0 0 1 0 0 0 2:1 10:16 12:1 22:1 
0 0 1 0 0 0 2:0.2 5:0.8 10:10 12:1 17:1 
0 0 1 0 0 0 2:0.5 5:0.5 10:2 12:1 23:1 
0 0 0.2128850852372736 0 0 0 4:1 10:16 14:1 22:1 
0 0 1 0 0 0 1:0.82352941 5:0.17647059 10:17 11:1 19:1 
0 0.04811700355882918 0 0 0 0 10:8 14:1 17:1 
0 0 1 0 0 0 5:1 10:1 12:1 17:1 
0 0 1 0 0 0 3:0.41176471 5:0.58823529 10:17 13:1 17:1 
0 0 1 0 0 0 1:1 10:9 11:1 22:1 
0 0 1 0 0 0 1:1 10:17 11:1 23:1 
0 0 0 0 0.01580679634441205 0 1:1 10:35 11:1 17:1 
0 0 1 0 0 0 1:0.94736842 5:0.052631579 10:19 11:1 23:1 
0 0 1 0 0 0 3:0.5 5:0.5 10:20 13:1 19:1 
0 0 0.1646303673645882 0 0 0 2:1 10:2 12:1 23:1 
0.02412458858821574 0.9984459446462922 0 0.03653787846954386 0.03658923840663039 0.02765792123753364 1:1 10:66 11:1 18:1 
0 0 1 0 0 0 2:1 10:16 12:1 22:1 
0 0 0.4712565057232372 0 0 0 1:1 10:16 11:1 22:1 
0 0 1 0 0 0 1:1 10:6 11:1 23:1 
0 0 1 0 0 0 1:1 10:1 11:1 23:1 
0 0 1 0 0 0 2:1 10:4 12:1 24:1 
0 0 1 0 0 0 2:1 10:6 12:1 23:1 
0 0 0.6137071253167996 0 0 0 2:1 10:2 12:1 24:1 
0 0 0 0 1 0 10:20 11:1 20:1 
0 0 1 0 0 0 3:0.85 5:0.15 10:20 13:1 19:1 
0 0 1 0 0 0 2:1 10:2 12:1 23:1 
0.07248447739330509 0 0 0 0 0 10:20 11:1 21:1 
0 0 1 0 0 0 1:1 10:1 11:1 23:1 
0 0 1 0 0 0 2:1 10:3 12:1 22:1 
0 0 1 -0 0 0.7627209026049458 10:18 12:1 20:1 
0 0 1 0 0 0 1:1 10:1 11:1 23:1 
0.1083109216277303 0 0 0 0.2270609220752094 0 10:3 13:1 19:1 
0 0 0.1768071422551772 0 0 0 4:1 10:7 14:1 22:1 
0 0 1 0 0 0 1:1 10:1 11:1 23:1 
0 0 1 0 0 0 3:1 10:17 13:1 23:1 
0 0.3895275419047405 0 0 0 0 10:14 14:1 17:1 
0.00084567038162622 0 0 0 0.01245330394612018 0.006868206659025964 4:1 10:37 14:1 18:1 
0 0 1 0 0 0 1:1 10:17 11:1 23:1 
0.1906595423271146 0 0 0 0 0.1980849758505963 10:4 13:1 19:1 
0.2059947908319954 0 1 0.4324002578930182 0.02177478810978055 0 10:2 11:1 23:1 
0 0.48901937477904 0 0.006991253124382049 0 0.002853544559491578 4:0.94 10:50 14:1 18:1 
0 0 1 0 0 0 2:1 10:1 12:1 23:1 
0 0 1 0 0 0 2:0.66666667 10:3 12:1 23:1 
0 0 0 0.3732257345737938 0 0 10:3 14:1 17:1 
0 0 1 0 0 0 1:1 10:1 11:1 23:1 
0 0 1 0 0 0 5:1 10:5 13:1 17:1 
0 0 1 0 0 0 2:1 10:16 12:1 22:1 
0 0 1 0 0 0 4:0.33333333 5:0.33333333 10:3 14:1 17:1 
0 0 1 0 0 0 10:1 13:1 19:1 
0 0 0 0 0.1419835073952418 0 4:1 10:25 14:1 20:1 
0 0.2352534229389187 0 0 0.001572129236916314 0.01574226462465343 3:1 10:39 13:1 19:1 
0 0 0.5547823897507542 0 0 0 2:1 10:4 12:1 24:1 
0 0 1 0 0 0 2:1 10:16 12:1 22:1 
0 0 1 0 0 0 1:1 10:1 11:1 23:1 
0 0 0.07876950002662772 0 0 0 2:1 10:6 12:1 22:1 
0.1767657460640117 0.3788970243502217 1 0.1524227920204879 0.1674828473076438 0.1942323556964922 10:2 13:1 25:1 
0 0 1 0 0 0 1:0.6 10:5 11:1 23:1 
0 0 1 0 0 0 1:0.44444444 5:0.55555556 10:18 11:1 17:1 
0 0 0.1291665313779161 0 0 0 2:0.083333333 10:12 12:1 19:1 
0 0.3891994526225914 1 0 0 0 1:0.2 10:15 11:1 23:1 
0 0 1 0 0 0 1:1 10:1 11:1 25:1 
0.8912641327383447 1 1 0.7298721021410568 1 0 10:21 14:1 20:1 
0 0 0 0.0083667862540691 0 0 2:1 10:33 12:1 22:1 
0 0.5301181105965649 0 0 0 0 2:0.93939394 10:33 12:1 18:1 
0.02082995131844646 0.07061812096242655 0 0 0.002242282269471951 0 4:1 10:32 14:1 21:1 
0 0 1 0 0 0 2:1 10:1 12:1 23:1 
0 0 1 0 0 0 1:0.1 10:20 11:1 22:1 
0 0 1 0 0 0 1:1 10:17 11:1 23:1 
0 0 1 0 0 0 2:1 10:5 12:1 23:1 
0 0 1 0 0 0 1:0.6 5:0.4 10:5 11:1 23:1 
0 0 1 0 0 0 2:0.6 5:0.4 10:20 12:1 17:1 
0 0 0.5528382472345624 0 0 0 1:1 10:17 11:1 24:1 
0.1651919569507556 0.1393683914849719 0 0 0.6406097417905644 0 10:14 14:1 20:1 
0.9771558124485296 0 0 0.09526994591247885 0.05255031019627535 0 10:3 12:1 20:1 
0 0 0.6590966674770812 0 0 0 3:0.72222222 5:0.27777778 10:18 13:1 18:1 
0 0 1 0 0 0 1:1 10:17 11:1 24:1 
0 0 1 0 0 0 1:1 10:1 11:1 25:1 
0 0 1 0 0 0 2:0.25 5:0.75 10:20 12:1 17:1 
0 0 0.1844741769972946 0 0 0 4:0.97297297 10:37 14:1 17:1 
0 0 1 0 0 0 1:1 10:1 11:1 25:1 
0 0 1 0 0 0 10:16 11:1 22:1 
0 0 1 0 0 0 2:1 10:1 12:1 24:1 
1 0 0 0.8466444937689015 0 0.7623914263373708 10:20 11:1 21:1 
0 0 1 0 0 0 2:0.083333333 5:0.91666667 10:12 12:1 18:1 
0 0 1 0 0 0 1:1 10:17 11:1 23:1 
0 0 0 0.04223269940245166 0 0 10:3 11:1 18:1 
0.07632479026498788 0 0.004989169724658655 0.08273250663238951 0.07444116231536026 0.06575282838400152 2:1 10:1 12:1 26:1 
0 0.08839249998661546 0 0 0 0 10:16 14:1 17:1 
0 0.4857028221702968 0 0 0 0 10:15 11:1 17:1 
0 0 0 0.03163476207891399 0 0 3:1 10:27 13:1 19:1 
0 0 0.7975322715227501 0 0 0 4:1 10:54 14:1 17:1 
0 0.6532450995767251 0 0 0 0 10:9 14:1 17:1 
0 0 0 0.07264110130115162 0 0 10:11 12:1 18:1 
0 0.3826380306432625 0 0 0 0 10:7 11:1 18:1 
0 0 0.6131136782504243 0 0 0 4:1 10:54 14:1 18:1 
0 0 1 0 0 0 2:1 10:5 12:1 23:1 
0 0 1 0 0 0 10:19 13:1 20:1 
0 0 1 0 0 0 2:1 10:2 12:1 23:1 
0 0.2054124886189129 0 0 0.01396657738668131 0 10:8 11:1 18:1 
0 0 1 0 0 0 4:1 10:2 14:1 22:1 
0.07398184228505096 0.3102258008757229 -0 0 0 0.3735889249442135 10:1 11:1 18:1 
0 0 1 0 0 0 10:20 13:1 20:1 
0 0.04143441449002012 1 0 0 0 4:1 10:2 14:1 23:1 
0 0 1 0 0 0 10:20 13:1 20:1 
0 1 0 0 0 0 3:0.93103448 10:29 13:1 19:1 
0 0 1 0 0 0 1:0.5 10:2 11:1 24:1 
0 0 1 0 0 0 1:1 10:17 11:1 23:1 
0 0 1 0 0 0 10:1 13:1 19:1 
0 0 0.6903882094478437 0 0 0 10:20 14:1 20:1 
0 0 1 0 0 0 1:1 10:11 11:1 24:1 
0 0 0 0 0 0.007092757254528794 10:4 11:1 17:1 
0 0 1 0 0 0 1:1 10:1 11:1 23:1 
0 0 1 0 0 0 4:0.1 5:0.9 10:20 14:1 20:1 
0 0 1 0 0 0 10:17 13:1 19:1 
0.004972973001810617 0 0 0.1806830665583657 0.1878821211005308 0 10:18 14:1 17:1 
0 0 1 0 0 0 10:19 11:1 22:1 
0 0 1 0 0 0 2:0.8 5:0.2 10:5 12:1 20:1 
0 0.2204388911111351 0 0 0 0 3:1 10:36 13:1 19:1 
0 0 1 0 0 0 1:1 10:1 11:1 23:1 
0 0 1 0 0 0 1:1 10:16 11:1 22:1 
0.1227295290388426 0.2112403714794008 1 0.3203595769625002 0 0.009973590393778538 10:1 12:1 20:1 
0 0 1 0 0 0 1:1 10:54 11:1 18:1 
0 0 1 0 0 0 10:20 13:1 20:1 
0 0 1 0 0 0 1:1 10:17 11:1 24:1 
0 0 1 0 0 0 1:0.35 5:0.65 10:20 11:1 17:1 
0 0 1 0 0 0 1:1 10:17 11:1 23:1 
0 0 1 0 0 0 10:1 13:1 19:1 
0 0 1 0 0 0 10:20 14:1 20:1 
0 0 0.1833467844336227 0 0 0 2:1 10:16 12:1 24:1 
0 0 1 0 0 0 2:1 10:2 12:1 23:1 
0 0 1 0 0 0 1:0.5 5:0.5 10:2 11:1 18:1 
0 0 1 0 0 0 1:0.38461538 5:0.61538462 10:13 11:1 17:1 
0 0 1 0 0 0 10:20 13:1 20:1 
0 0 1 0 0 0 1:1 10:17 11:1 23:1 
0 0 1 0 0 0 1:1 10:6 11:1 23:1 
0 0 1 0 0 0 1:0.66666667 5:0.33333333 10:15 11:1 22:1 
0 0.9544475905603824 1 0 0 0 4:0.0625 10:16 14:1 24:1 
0 0 1 0 0.01589772459415169 0 5:1 10:1 12:1 17:1 
0 0 1 0 0 0 1:0.65 5:0.35 10:20 11:1 18:1 
0 0 1 0 0 0 10:20 14:1 20:1 
0 0 1 0 0 0 2:1 10:2 12:1 23:1 
0 0 1 0 0 0 4:1 10:14 14:1 23:1 
0 0 1 0 0 0 1:1 10:1 11:1 23:1 
0 0.2298488107682341 0 0.04101583387332355 0 0.1936937546821209 10:21 14:1 19:1 
0 0 1 0 0 0 4:1 10:17 14:1 24:1 
0.1419077318937917 0 0 0 0 0 10:17 12:1 19:1 
0 0 1 0 0 0 10:20 14:1 20:1 
0 0 1 0 0 0 2:1 10:1 12:1 23:1 
0 0 1 0 0 0 1:1 10:5 11:1 22:1 
0.3069203575264667 0 0 0 0.0313626892800414 0.2938230397443918 10:19 14:1 19:1 
0 0 1 0 0 0 1:1 10:16 11:1 22:1 
0 0 0.05894681918596224 0 0 0 2:1 10:4 12:1 22:1 
1 0 0 0.7131177192789885 0.4295468857044349 0 10:2 13:1 20:1 
0 0 1 0 0 0 1:1 10:17 11:1 23:1 
0 0 1 0 0 0 1:1 10:1 11:1 23:1 
0 0 1 0 0 0 1:1 10:17 11:1 24:1 
0 0.3089816183158468 1 0 0 0 10:17 11:1 24:1 
0 0 0.2422534396185246 0 0 0 2:1 10:17 12:1 23:1 
0 0 1 0 0 0 1:0.090909091 5:0.90909091 10:11 11:1 17:1 
0 0 0.3082373906905295 0 0 0 1:1 10:5 11:1 23:1 
0 0.4363917649649862 0 0 0 0 10:7 13:1 17:1 
0 0 1 0 0 0 2:1 10:17 12:1 23:1 
0 0.6029789082931454 0 0.09919686724802318 0.468825774794792 0.4855506211229307 10:1 12:1 19:1 
0 0 1 0 0 0 1:1 10:16 11:1 22:1 
0 0 0 0 0.1542023477313477 1 10:20 11:1 20:1 
0.2085048179896884 0 0 0 0.7771154609727784 0.2745861574012605 10:4 14:1 19:1 
0 0 1 0 0 0 1:0.58333333 5:0.41666667 10:12 11:1 23:1 
0 0.03091913842926092 0 0 0 0 10:7 12:1 17:1 
0 0 1 0 0 0 10:20 14:1 20:1 
0 0 1 0 0 0 4:0.5 5:0.5 10:2 14:1 17:1 
0 0 1 0 0 0 1:0.2 10:5 11:1 21:1 
0 0 1 0 0 0 2:1 10:17 12:1 23:1 
0 0 1 0 0 0 1:1 10:16 11:1 22:1 
0 0 1 0 0 0 2:1 10:10 12:1 23:1 
0.003384139243187544 0 0 0.07391272525035326 0.03689582647550788 0 10:2 14:1 18:1 
0 0 1 0 0 0 2:1 10:1 12:1 24:1 
0 0 0.3788818528529072 0 0 0 2:1 10:36 12:1 17:1 
0 0 1 0 0 0 1:0.083333333 5:0.91666667 10:12 11:1 17:1 
0 0 1 0 0 0 2:1 10:2 12:1 24:1 
0 0 0 0.2056925065291462 0.003848883141401845 0 10:4 11:1 18:1 
0 0 0.3526207747810804 0 0 0 1:1 10:7 11:1 22:1 
0 0 0 0.00539230438093403 0.02043976435648256 0 10:18 11:1 17:1 
0 0 1 0 0 0 1:0.36842105 10:19 11:1 22:1 
0 0 1 0 0 0 2:1 10:2 12:1 23:1 
0.007063209740048901 0 0 0 0 0 3:1 10:39 13:1 17:1 
0 0 1 0 0 0 10:20 13:1 20:1 
0 0 0 0 0.1571282325374727 0 2:1 10:24 12:1 20:1 
0 0 1 0 0 0 2:1 10:2 12:1 23:1 
0 0 1 0 0 0 2:1 10:1 12:1 23:1 
1 0.1779866698424246 1 0.8738538663141238 0.6299584542044246 0.5253545216241908 10:9 11:1 20:1 
0 0 0.787091791566375 0 0 0 3:1 10:9 13:1 22:1 
0 0 1 0 0 0 1:0.2 5:0.3 10:20 11:1 19:1 
0 0 0.04271747381160686 0 0 0 2:1 10:10 12:1 24:1 
0 0 1 0 0 0 2:1 10:6 12:1 23:1 
0 0 0 0 0 0.7889253844856178 10:20 11:1 20:1 
0 0 0.1545032530760065 0 0 0 1:1 10:1 11:1 24:1 
0 0 1 0 0 0 1:0.2 5:0.8 10:15 11:1 17:1 
0 0 0 0 0.01263513332993136 0 10:12 14:1 17:1 
0 0 1 0 0 0 2:0.18181818 5:0.81818182 10:11 12:1 22:1 
0 0 1 0 0 0 2:0.45 5:0.55 10:20 12:1 17:1 
0 0 1 0 0 0 2:0.625 5:0.375 10:8 12:1 17:1 
0 0 0 0.009517923426812323 0 0 10:19 12:1 17:1 
0 0 0 0 0.006581399134575642 0 2:1 10:2 12:1 26:1 
0 0 1 0 0 0 1:1 10:11 11:1 23:1 
1 0 0 1 0.2656714400154073 0.8746340421687276 10:20 12:1 21:1 
0.08080945556616452 0 0 0 0.2789116031990328 0 10:18 14:1 19:1 
0 0 1 0 0 0 1:1 10:1 11:1 23:1 
0 0 1 0 0 0 5:0.055555556 10:18 12:1 19:1 
0 0 0.3780311464740208 0 0 0 2:1 10:9 12:1 22:1 
0 0 1 0 0 0 1:1 10:10 11:1 22:1 
0 0 1 0 0 0 1:0.83333333 10:18 11:1 22:1 
0 0.9680139268235253 0 0 0 0 3:1 10:88 13:1 17:1 
0 0 1 0 0 0 2:0.0625 5:0.9375 10:16 12:1 18:1 
0 0 1 0 0 0 2:1 10:17 12:1 23:1 
0 0 0.457565844725313 0 0 0 1:1 10:7 11:1 22:1 
0 0 1 0 0 0 2:1 10:1 12:1 24:1 
0 0.04074910912768794 1 0 0 0 3:1 10:7 13:1 23:1 
0 0 1 0 0 0 2:0.88888889 5:0.11111111 10:18 12:1 22:1 
0.003110790344946594 0 0 0.0120446315959337 0 0 4:1 10:38 14:1 18:1 
0 0 0 0.1434243326064618 0 0.2132988205322569 3:0.90909091 10:11 13:1 21:1 
0 0 1 0 0 0 1:1 10:10 11:1 22:1 
0 0 1 0 0 0 2:1 10:9 12:1 22:1 
0 0 1 0 0 0 2:1 10:4 12:1 22:1 
0 0 1 0 0 0 2:1 10:16 12:1 22:1 
0.8022382608150718 0 1 0.5321892799334543 0.328577960952133 0 1:0.083333333 10:12 11:1 20:1 
0 0 1 0 0 0 2:1 10:2 12:1 24:1 
0 0 0.9975895652455274 0.01598287595233751 0 0 1:1 10:36 11:1 20:1 
0 0 0.7709957464298289 0 0 0 1:1 10:2 11:1 22:1 
0 0 1 0 0 0 1:1 10:1 11:1 22:1 
0 0 1 0 0 0 1:1 10:16 11:1 22:1 
0 0 0.76950899377763 0 0 0 2:1 10:3 12:1 22:1 
0 0 0 0.4926915149861188 0.1944787508782626 0.7443259567548259 10:17 14:1 20:1 
0 0 1 0 0 0 1:1 10:6 11:1 22:1 
0 0 1 0 0 0 4:0.8 5:0.2 10:20 14:1 20:1 
0 0 1 0 0 0 2:1 10:1 12:1 23:1 
0.03994841675686714 0 0.6207250959472287 0 0 0 4:1 10:53 14:1 17:1 
0 0 1 0 0 0 3:0.66666667 5:0.33333333 10:3 13:1 17:1 
0 0 1 0 0 0 2:1 10:2 12:1 23:1 
0 0 0.3752034183853809 0 0 0 3:1 10:17 13:1 25:1 
0 0 0 0.6664261561346118 0 1 1:0.076923077 10:13 11:1 21:1 
0 0 0.9095221960058593 0 0 0 1:1 10:54 11:1 17:1 
0 0 1 0 0 0 1:1 10:2 11:1 22:1 
0 0 1 0 0 0 1:1 10:5 11:1 23:1 
0 0 1 0 0 0 1:1 10:16 11:1 24:1 
0 0 1 0 0 0.09626042901561344 2:0.82352941 5:0.17647059 10:17 12:1 26:1 
0 0 1 0 0 0 2:1 10:17 12:1 23:1 
0 0 0.008932520291337048 0.002569493330984214 0 0 3:1 10:37 13:1 17:1 
0 0 0 0.09900706248691921 0 0 10:2 11:1 19:1 
0 0.2812202155174596 0 0 0 0 10:8 12:1 17:1 
0 0 1 0 0 0 10:20 14:1 20:1 
0.4202947193995196 0.7702005782101389 0 0 0 0.5787284332605361 10:1 14:1 18:1 
0 0 1 0 0 0 1:1 10:1 11:1 22:1 
0.02140455791396639 0 0 0 0 0 3:1 10:27 13:1 20:1 
0 0 1 0 0 0 1:1 10:5 11:1 23:1 
0.9831986278246371 0.5695246154676413 0 0 0 0.01982630142038681 10:9 14:1 20:1 
0 0 1 0 0 0 1:1 10:2 11:1 22:1 
0 0.06836714769238114 0 0.2496083373633734 0 0 10:3 12:1 17:1 
0 0 1 0 0 0 3:1 10:1 13:1 22:1 
0 0 0.7585620777365907 0 0 0 2:1 10:8 12:1 22:1 
0 0.4209372201441413 0 0.4455460699529711 0 0.0029370104770303 10:3 11:1 17:1 
0.06419243096289885 0 0 0 0 0 10:14 11:1 17:1 
0 0 0 0.003716058028962414 0.1252094867444216 0 10:16 13:1 17:1 
0.09469632915871755 0 1 0.06932931737369114 0.1079606041508483 0.1666349394330979 10:18 11:1 28:1 
0.3658888200154226 0.1543647385406014 0 0 0 0 2:1 10:26 12:1 21:1 
0 0 0.1089348798245533 0 0 0 1:1 10:3 11:1 22:1 
0 0 1 0 0 0 2:1 10:16 12:1 24:1 
0 0 0.470854581998852 0 0 0 2:1 10:26 12:1 18:1 
0 0 1 0 0 0 1:1 10:1 11:1 23:1 
0.005981184108736456 0 0 0.01028241926334393 0 0 3:1 10:41 13:1 17:1 
0.1659061500589793 0 0 0.3490422268428357 0 0.2250413497019874 10:20 13:1 21:1 
0.1166753368042799 0 0 0 0 0 10:17 11:1 19:1 
0 0 0 0 0.01016226424609603 0 10:6 11:1 18:1 
0 0 0.7467723664272268 0 0 0 2:1 10:2 12:1 25:1 
0.2293915334190274 0 0 0.6938185058827794 0.03999047784472824 0.08678169147579728 10:3 14:1 18:1 
0 0 1 0 0 0 1:1 10:1 11:1 22:1 
0 0 0.8446927384837489 0 0 0 2:1 10:5 12:1 22:1 
0 0 0 0 0.05719485950372889 0 1:1 10:7 11:1 33:1 
1 0 0 1 0.98595386417649 1 10:20 11:1 21:1 
0 0 1 0 0 0 10:16 11:1 22:1 
0 0 1 0 0 0 2:1 10:1 12:1 23:1 
0 0 1 0 0 0 1:1 10:1 11:1 22:1 
0 0.2922837573051029 0 0 0 0 3:0.98181818 10:55 13:1 17:1 
0 0 1 0 0 0 1:1 10:1 11:1 23:1 
0 0 1 0 0 0 2:1 10:2 12:1 24:1 
0.1970848658989539 0 0 0.3098339026737001 0 0.0530139207385503 10:21 14:1 17:1 
0 0 1 0 0 0 1:1 10:3 11:1 22:1 
0 0 1 0 0 0 1:1 10:1 11:1 22:1 
0 0 1 0 0 0 1:1 10:10 11:1 24:1 
0 0.3684081484654175 0 0 0 0 1:1 10:29 11:1 21:1 
0 0 1 0 0 0 10:2 12:1 19:1 
0 0.3663891834390675 0 0 0 0 1:1 10:29 11:1 17:1 
0.002269360493902667 0 0 0.004249618594401185 0 0.003822094464155343 4:1 10:95 14:1 17:1 
0 0 1 0 0 0 1:0.55 5:0.45 10:20 11:1 17:1 
0 0 1 0 0 0 1:1 10:1 11:1 22:1 
0.02400318186567097 0 0 0 0 0 3:1 10:55 13:1 17:1 
0 0 1 0 0 0 1:1 10:1 11:1 24:1 
0 0 1 0 0 0 1:1 10:1 11:1 25:1 
0 0 1 0 0 0 4:0.5 5:0.5 10:2 14:1 17:1 
0 0 1 0 0 0 2:1 10:17 12:1 23:1 
0 0 0 0 0.03194795844310399 0 1:1 10:24 11:1 20:1 
0 0.1127623378568227 0 0 0.002110713900045094 0 1:1 10:33 11:1 18:1 
0 0 1 0 0 0 2:1 10:2 12:1 24:1 
0 0 0 0 0 0.0008289654737060932 3:1 10:36 13:1 18:1 
0 0 0.639643552162048 0 0 0 1:1 10:4 11:1 23:1 
0.02664850459700492 0 0 0 0.05617853666938001 0 10:17 14:1 19:1 
0 0 1 0 0 0 10:1 11:1 20:1 
0.019098225811541 0 0.1551268334975885 0 0 0 2:1 10:54 12:1 17:1 
0 0 1 0 0 0 2:1 10:9 12:1 22:1 
0 0 1 0 0 0 2:1 10:12 12:1 24:1 
0 0 1 0 0 0 2:1 10:17 12:1 23:1 
0 0 1 0 0 0 10:20 13:1 20:1 
0 0 1 0 0 0 2:1 10:1 12:1 22:1 
0 0 1 0 0 0 3:0.22222222 5:0.72222222 10:18 13:1 17:1 
0 0 1 0 0 0 1:1 10:8 11:1 22:1 
0.1377964893895143 0.7497709695178355 0 1 0 0.1125430878598064 10:3 14:1 17:1 
0.3468025655921354 0.7296809740160817 0 0 0 0 1:1 10:27 11:1 21:1 
0 0.03132859793331714 0 0.1976136711631911 0 0 10:2 12:1 17:1 
0 0 1 0 0 0 1:0.5 10:2 11:1 22:1 
0 0 1 0 0 0 1:1 10:2 11:1 22:1 
0 0 1 0 0 0 2:1 10:16 12:1 22:1 
0.003311478101879211 0 0 0 0 0 1:1 10:55 11:1 17:1 
0 0 1 0 0 0 1:1 10:1 11:1 22:1 
0 0 1 0 0 0 1:1 10:9 11:1 22:1 
0 0 1 0 0 0 2:1 10:17 12:1 23:1 
0 0 1 0 0 0 3:0.44444444 5:0.55555556 10:9 13:1 17:1 
0 0 0.2870412829722123 0 0 0 1:1 10:3 11:1 23:1 
0 0 1 0 0 0 2:1 10:17 12:1 23:1 
0 0 1 0 0 0 2:1 10:17 12:1 23:1 
0 0 1 0 0 0 10:20 14:1 20:1 
0 0 1 0 0 0 1:1 10:4 11:1 23:1 
0 0 1 0 0 0 2:1 10:4 12:1 22:1 
0 0 1 0 0 0 2:1 10:1 12:1 22:1 
0 0 1 0 0 0 1:0.36842105 5:0.63157895 10:19 11:1 19:1 
0 0 1 0 0 0 3:0.6 5:0.4 10:20 13:1 17:1 
0.02333391641794938 0 0 0 0.01286537565768793 0.04225242076262378 3:0.76470588 10:17 13:1 27:1 
1 0 0 1 0.1148153451723065 1 10:20 13:1 21:1 
0.007751468986149623 0 0 0.04662197236948702 0.02437416032598073 0 3:1 10:2 13:1 22:1 
0 0 1 0 0 0 1:1 10:1 11:1 23:1 
0 0.3694817089594283 0.5859902396176652 0.1625157037656854 0 0.00310732067026413 10:1 11:1 20:1 
0 0 1 0 0 0 2:1 10:2 12:1 23:1 
0.03824381161286911 1 0 0.03207139625086419 0.02979416879304281 0.02563053836663192 2:1 10:102 12:1 18:1 
0 0 1 0 0 0 3:1 10:1 13:1 22:1 
0 0 1 0 0 0 2:1 10:1 12:1 23:1 
0 0 1 0 0 0 1:1 10:1 11:1 24:1 
0 0 1 0 0 0 1:1 10:2 11:1 22:1 
0 0 1 0 0 0 2:1 10:1 12:1 24:1 
0 0 1 0 0 0 1:1 10:1 11:1 22:1 
0 0 1 0 0 0 2:0.94736842 5:0.052631579 10:19 12:1 22:1 
0 0 1 0 0 0 10:20 14:1 20:1 
0 0 0.7422497271502665 0 0 0 3:1 10:12 13:1 22:1 
0 0 1 0 0 0 2:1 10:8 12:1 22:1 
0 0 1 0 0 0 2:1 10:17 12:1 23:1 
0 0 1 0 0 0 3:0.5 5:0.5 10:2 13:1 18:1 
0 0 1 0 0 0 1:1 10:2 11:1 22:1 
0 0 0 0 1 1 10:20 12:1 20:1 
0 0.4991721416081923 0 0 0 0 2:0.96296296 10:27 12:1 20:1 
0 0 1 0 0 0 1:1 10:16 11:1 22:1 
0 0 1 0 0 0 1:1 10:17 11:1 23:1 
0 0 1 0 0 0 1:0.66666667 10:9 11:1 22:1 
0.1244436008542292 0.4100287605702743 -0 0.08246467736002808 0 0.32378694300102 10:1 12:1 18:1 
0 0 1 0 0 0 1:1 10:1 11:1 22:1 
0 0 0.7611253028064119 0 0 0.02399063654253043 2:1 10:12 12:1 25:1 
0 0 1 0 0 0 1:1 10:2 11:1 22:1 
0 0 1 0 0 0 2:1 10:8 12:1 22:1 
0 0 1 0 0 0 2:1 10:1 12:1 22:1 
0 1 1 0 0 0 2:0.2 10:55 12:1 19:1 
0 0 0 0.01452712245389564 0.01491981835499036 0 2:1 10:66 12:1 17:1 
0 0 1 0 0 0 2:0.5 10:6 12:1 23:1 
0 0 1 0 0 0 3:0.76470588 10:17 13:1 23:1 
0 0 1 0 0 0 2:1 10:16 12:1 22:1 
0 0 0 0 0.001336079501857499 0 3:1 10:33 13:1 17:1 
0 0 1 0 0 0 4:0.1 5:0.9 10:20 14:1 17:1 
0.006792891145599408 0 0 0 0.02420246626526206 0.007035172980045197 10:18 13:1 19:1 
0 0 1 0 0 0 1:1 10:2 11:1 22:1 
0 0.2571724816437789 1 0 0.0104198149189164 0 10:6 11:1 23:1 
0 0 1 0 0 0 2:1 10:1 12:1 23:1 
0.04619961566083549 0.4674297163125758 0 0 0 0 10:15 13:1 17:1 
0 0 1 0 0 0 2:1 10:1 12:1 24:1 
1 0.7775385527841668 1 0.9638945008735146 0.1750978655892011 1 10:9 12:1 21:1 
0 0 1 0 0 0 2:0.33333333 5:0.66666667 10:18 12:1 19:1 
0 0 0.1186999439982218 0 0 0 1:1 10:25 11:1 18:1 
0 0 1 0 0 0 1:1 10:12 11:1 23:1 
0 0 1 0 0 0 4:0.66666667 5:0.33333333 10:3 14:1 18:1 
0 0 1 0 0 0 2:1 10:2 12:1 24:1 
0 0.4377208069167745 0 0 0 0 3:1 10:57 13:1 17:1 
0 0.2180051456304256 0 0 0 0 3:1 10:62 13:1 18:1 
0 0 0.02176948395211236 0 0 0 2:1 10:36 12:1 17:1 
0 0 1 0 0 0 2:1 10:4 12:1 22:1 
0 0.4100517401723338 0 0 0 0 10:1 13:1 17:1 
0 0.09277915634684014 0 0 0.004788494346833071 0 1:1 10:32 11:1 18:1 
0 0 1 0 0 0 1:1 10:2 11:1 22:1 
0 0 0 0.004295052409784944 0 0.002612976755606702 4:1 10:58 14:1 18:1 
0.1382990047649416 1 0 0 0 0 4:0.55555556 10:27 14:1 17:1 
0 0 1 0 0 0 1:1 10:2 11:1 22:1 
0 0 0 0 0.1715579998938743 0 10:19 12:1 18:1 
0 0.2679720366506027 0 0.009706501785802131 0 0.0192886723002083 2:1 10:1 12:1 27:1 
0 0 0.8244239992198596 0 0 0 3:0.98148148 10:54 13:1 18:1 
0 0 1 0 0 0 1:1 10:8 11:1 22:1 
0 0 1 0 0 0 2:1 10:1 12:1 22:1 
0.3749793288451428 0.6738023455830011 1 0.1511076937862992 0 0 10:1 12:1 23:1 
0 0.1380368396153264 0 0.004122851852706198 0.005037887918409305 0.00472840564211443 3:1 10:33 13:1 20:1 
0 0 1 0 0 0 3:0.1 5:0.9 10:20 13:1 22:1 
0 0 0 0.1511689453986171 0.7885492357100263 0.6641240876609461 10:20 12:1 20:1 
0 0 1 0 0 0 1:1 10:6 11:1 24:1 
0 0 1 0 0 0 2:1 10:1 12:1 23:1 
0 0 1 0 0 0 2:0.6 5:0.4 10:5 12:1 17:1 
0 0 1 0 0 0 2:1 10:1 12:1 23:1 
0 0 1 0 0 0 3:0.41176471 5:0.58823529 10:17 13:1 17:1 
0 0 1 0 0 0 1:1 10:2 11:1 22:1 
0 0 0 0 0.1437541446048284 0 10:11 13:1 17:1 
0 0 0 0 0.2960781392567896 0 10:17 11:1 17:1 
0 0 1 0 0 0 4:0.55 5:0.45 10:20 14:1 17:1 
1 0.3696796044753245 0.1589203204262418 1 0.8834679574213031 1 10:20 12:1 21:1 
0.0124630527066558 0 0 0.007037756199444516 0.01354490727231249 0.02543601188502216 4:1 10:41 14:1 17:1 
0 0 1 0 0 0 2:1 10:1 12:1 22:1 
0 0 1 0 0 0 2:1 10:1 12:1 23:1 
0 0 0 0 0.1737837793861671 0 10:18 14:1 18:1 
0 0 0.5451088018179659 0 0 0 2:1 10:7 12:1 22:1 
0 0 1 0 0 0 4:0.29411765 5:0.70588235 10:17 14:1 18:1 
1 0.8566201043582471 0 1 1 0.9522964406062272 10:20 13:1 21:1 
0 0 1 0 0 0 2:1 10:16 12:1 24:1 
0 0 1 0 0 0 2:1 10:17 12:1 23:1 
0 0 1 0 0 0 10:20 13:1 20:1 
0 0 1 0 0 0 1:1 10:1 11:1 25:1 
0 0 0 0 0.1444053139599363 0 10:3 11:1 19:1 
0 0 1 0 0 0 3:0.625 5:0.375 10:8 13:1 18:1 
0 0 1 0 0 0 2:0.8 5:0.15 10:20 12:1 24:1 
0.01682759486938519 0 0 0.006912044962750345 0 0.01558793367959115 2:1 10:36 12:1 22:1 
0 0.25862368811275 0 0 0 0 4:0.96296296 10:27 14:1 18:1 
0 0 1 0 0 0 2:1 10:1 12:1 22:1 
0 0 0 0 0.005517442824343109 0 10:18 12:1 17:1 
0 0 1 0 0 0 1:1 10:2 11:1 23:1 
0.008911496218211579 0.03850230406518362 0 0 0 0 10:13 11:1 18:1 
0 0 1 0 0 0 2:1 10:7 12:1 22:1 
0 0 1 0 0 0 2:0.8125 10:16 12:1 24:1 
0 0 0 0 0.02268944949403049 0 10:18 13:1 17:1 
0 0 1 0 0 0 1:0.75 10:4 11:1 23:1 
0.2374920847755969 0.001565996778254853 0 0.02635739367572243 0 0.05954690059711086 10:13 12:1 17:1 
0 0 1 0 0 0 2:1 10:1 12:1 22:1 
0 0.6424864181449153 0 0 0 0 1:1 10:57 11:1 17:1 
0 0 1 0 0 0 2:1 10:1 12:1 23:1 
0 0 0.04299469619522053 0 0 0 1:1 10:4 11:1 22:1 
0 0 1 0 0 0 1:1 10:4 11:1 22:1 
0.03106435445111322 0 0.4116352081961389 0 0 0 3:1 10:54 13:1 17:1 
0 0 1 0 0 0 1:1 10:2 11:1 22:1 
0 0 1 0 0 0 1:0.7 5:0.3 10:10 11:1 21:1 
0 0 1 0 0 0 4:1 10:2 14:1 22:1 
0 0 1 0 0 1 10:20 13:1 20:1 
0 0 1 0 0 0 1:1 10:17 11:1 24:1 
0.02027059228322115 0 1 0.009966134464268188 0 0.001603919549192829 2:1 10:53 12:1 17:1 
0 0 1 0 0 0 1:1 10:2 11:1 22:1 
0 0 0.8434707844680109 0 0 0 2:1 10:17 12:1 23:1 
0.2118788831991426 0.01763586489079936 0 0 0 0 10:15 14:1 17:1 
0 0 1 0 0 0 1:1 10:1 11:1 23:1 
0 0 0 0 0 0.554162308459317 10:4 14:1 17:1 
0 0 1 0 0 0 1:1 10:5 11:1 22:1 
0 0 1 0 0 0 2:1 10:1 12:1 22:1 
0 0 0 0.0578962043702856 0 0 10:2 12:1 18:1 
0 0 1 0 0 0 1:1 10:2 11:1 23:1 
0 0 1 0 0 0 1:1 10:10 11:1 22:1 
0 0 1 0 0 0 10:1 13:1 19:1 
0 0 1 0 0 0 1:1 10:4 11:1 22:1 
0 0 1 0 0 0 1:1 10:1 11:1 22:1 
0 0 1 0 0 0 2:0.84210526 10:19 12:1 23:1 
0 0 1 0 0 0 4:0.65 5:0.35 10:20 14:1 18:1 
0 0.05675727142246473 0 0 0 0 1:1 10:41 11:1 20:1 
0 0 0 0 0 0.01549101304056878 1:1 10:22 11:1 21:1 
0 0 0.866050405135241 0 0 0 1:1 10:16 11:1 22:1 
0 0 1 0 0 0 2:0.9 10:10 12:1 24:1 
0 0.1151459646905198 0 0 0 0 10:14 11:1 18:1 
0 0 0 0 0 0.3029157659556535 10:4 13:1 17:1 
0 0 1 0 0 0 1:1 10:5 11:1 22:1 
0 0 0 0 0 0.01686190334715811 1:1 10:33 11:1 17:1 
0 0 1 0 0 0 1:0.26666667 10:15 11:1 22:1 
0 0 0.06659036529267481 0 0 0 2:1 10:1 12:1 24:1 
0 0.008074490110085443 0 0 0 0 2:1 10:14 12:1 25:1 
0.07448166667422573 0.2408292087479651 0 0 0 0 10:15 14:1 19:1 
0 0 1 0 0 0 3:1 10:1 13:1 22:1 
0 0.02991924960521024 0 0.7369011296060459 0 0.08618563784623877 10:3 13:1 17:1 
0 0 1 0 0 0 2:0.8 5:0.2 10:20 12:1 19:1 
0 0.06677777683257911 0.668349982583717 0 0 0 2:1 10:10 12:1 24:1 
0.01828980989814612 0 0 0 0 0 1:1 10:61 11:1 20:1 
0 0 0 0.007256228207118718 0 0.05299217934582767 10:12 13:1 17:1 
0 0 1 0 0 0 1:1 10:6 11:1 22:1 
0 0 0 0.005324203843632104 0 0 4:1 10:33 14:1 17:1 
0 0 1 0 0 0 1:0.55 5:0.45 10:20 11:1 17:1 
0.03619594667998633 0 0 0 0 0 1:1 10:52 11:1 17:1 
0 0 0.94526057263206 0 0 0 1:1 10:36 11:1 17:1 
0.1527582381804551 0.1961713999084586 1 0.1152203106079486 0.1817721334672825 0.1288283381183167 10:4 12:1 27:1 
0 0 0 0 0.1155497744939736 -0 10:18 13:1 18:1 
0 0 0 0.1792024277206971 0 0 2:1 10:24 12:1 21:1 
0 0 1 0 0 0 2:1 10:1 12:1 22:1 
0 0 1 0 0 0 1:1 10:7 11:1 25:1 
0.193663515766243 0 0 0.01967280131943796 0.425741711956374 0 10:2 14:1 17:1 
0 0 0 0 0.09194484277859757 0 10:19 11:1 18:1 
0 0 0.00425250193239732 0 0 0 2:1 10:17 12:1 23:1 
0 0 1 0 0 0 2:1 10:7 12:1 22:1 
0 0 0.4354402027271327 0 0 0 1:1 10:1 11:1 22:1 
0 0 0 0.05658693620975474 0 -0 10:2 11:1 17:1 
0 0 0.6901408507603463 0 0 0 2:1 10:16 12:1 24:1 
0 0 1 0 0 0 4:0.55 5:0.45 10:20 14:1 17:1 
0 0 1 0 0 0 2:1 10:12 12:1 23:1 
0 0 1 0 0 0 1:0.8 5:0.2 10:5 11:1 23:1 
0.1878058693620381 0.8722934766745848 1 0.9334704593918213 0.5100183692252774 0.1416864706971374 10:8 13:1 22:1 
0 0 1 0 0 0 2:1 10:4 12:1 22:1 
0 0 0.9959156783019147 0 0.02138915764806937 0.02007734736581999 4:1 10:2 14:1 22:1 
0 0 0.8565060932809162 0 0 0 1:1 10:8 11:1 22:1 
0.1678966653525841 0.467165962905541 1 0.01061796640512038 0 0 5:0.47619048 10:21 13:1 17:1 
0 0 1 0 0 0 4:0.5 5:0.5 10:6 14:1 22:1 
0 0 1 0 0 0 2:1 10:2 12:1 24:1 
0 0 0.7558250545858549 0 0 0 2:1 10:2 12:1 22:1 
0.001958122580636321 0 0 0 0 0 2:1 10:37 12:1 19:1 
0 0 0.7135991695366684 0.1774838164737057 0.1843926220798415 0.7169391998497384 10:17 11:1 20:1 
0.1300841927462862 0 0 0 0 0 10:13 11:1 17:1 
0 0.003964940290219759 0 0 0 0 10:2 13:1 17:1 
0 0 1 0 0 0 2:1 10:6 12:1 22:1 
0 0 0.0613991707553203 0 0 0 2:1 10:9 12:1 22:1 
0 0 1 0 0 0 1:1 10:5 11:1 22:1 
0.2314672788307255 0 0 0 0.4075622530592756 0.7015357244612666 10:20 12:1 19:1 
0 0.557707307995609 0 0.01828469320700639 0.01391090782085648 0.01140284554306251 4:0.96969697 5:0.03030303 10:33 14:1 23:1 
0 0 1 0 0 0 2:1 10:1 12:1 25:1 
0 0 1 0 0 0 2:1 10:1 12:1 22:1 
0 0 1 0 0 0 2:1 10:2 12:1 23:1 
0 0 1 0 0 0 1:1 10:17 11:1 23:1 
0 0 1 0 0 0 2:1 10:2 12:1 23:1 
0 0 1 0 0 0 3:0.70588235 5:0.29411765 10:17 13:1 19:1 
0 0 0 0 0.04191728666941057 0 10:19 14:1 18:1 
0 0 0.786324205743974 0 0 0 1:1 10:1 11:1 23:1 
0.8394449690647385 0.12571310733151 1 1 0.5891830828229849 0.2501106595091847 10:20 14:1 22:1 
0.09097250198312946 0.3120034927812029 0 0.03471477295337441 0.5710645941619833 0.01950774041528234 10:1 11:1 17:1 
0 0 1 0 0 0 2:1 10:1 12:1 22:1 
0 0 1 0 0 0 1:1 10:2 11:1 23:1 
0 0 0 0 0 0.6074295086554289 10:20 13:1 19:1 
0 0 1 0 0 0 4:0.7 5:0.3 10:20 14:1 19:1 
0 0 0 0 0.00200061450351692 0.4452808717271002 10:20 11:1 19:1 
0 0 1 0 0 0 2:1 10:7 12:1 22:1 
0 0 1 0 0 0 2:1 10:6 12:1 23:1 
0 0.7940111442117054 1 0 0.03760254190574939 0.5321693664808946 10:1 11:1 22:1 
0.2828684692694778 0.7082868113140671 0 0 0.003827873357530522 0.7279993777399714 10:1 13:1 18:1 
0 0 0 0 0 0.04067948865464036 2:1 10:9 12:1 26:1 
0 0 1 0 0 0 1:0.05 5:0.95 10:20 11:1 17:1 
0 0 1 0 0 0 2:1 10:6 12:1 22:1 
0 0 0.842001499651207 0 0 0 1:1 10:17 11:1 23:1 
0 0 0 0 0.1047911967842695 0 10:9 13:1 17:1 
0 0 1 0 0 0 1:1 10:3 11:1 22:1 
0.2523865612641017 0.5362991705641846 0 0 0.4195914389187774 0 10:1 14:1 17:1 
0 0 1 0 0 0 1:1 10:16 11:1 24:1 
0 0 1 0 0 0 2:1 10:5 12:1 22:1 
0 0 0.3154559460634884 0 0 0 1:1 10:2 11:1 24:1 
0.1250269197670058 0.6045694303801822 0 0 0.4501660853202874 0.01277217535358597 10:1 12:1 17:1 
0 0 1 0 0 0 1:0.071428571 5:0.92857143 10:14 11:1 17:1 
0 0.05702581170055683 0 0 0.4413048079095476 0 10:15 12:1 17:1 
0 0 1 0 0 0 2:1 10:5 12:1 22:1 
0 0 0.7616049495797074 0 0 0 2:1 10:1 12:1 23:1 
0 0 0.8201896737067017 0 0 0 1:1 10:17 11:1 24:1 
0 0 1 0 0 0.171179775663225 10:6 11:1 19:1 
0 0 1 0 0.935335168608901 1 10:20 14:1 20:1 
0 0 1 0 0 0 1:1 10:2 11:1 22:1 
0 0 0 0 0.2620823292349597 0 10:17 13:1 17:1 
0.006806236047506931 0 1 0 0.05237965604502202 0 3:1 10:8 13:1 25:1 
0 0 1 0 0 0 2:1 10:2 12:1 24:1 
0 0 1 0 0 0 2:1 10:16 12:1 22:1 
0 0 1 0 0 0 1:1 10:5 11:1 22:1 
0.04986669201557094 0 1 0.1363928069504424 1 0.9369197126958908 10:20 13:1 20:1 
0.02457961225062527 0 0 0.08054551739103086 0 0 10:19 14:1 17:1 
0 0 0.9140080646194211 0 0 0 2:1 10:4 12:1 22:1 
0 0 1 0 0 0 1:1 10:2 11:1 22:1 
0 0 1 0 0 0 3:0.058823529 10:17 13:1 22:1 
0 0 1 0.10890308500813 0.03301311703904817 0 10:11 11:1 19:1 
0 0 1 0 0 0 4:0.85 5:0.15 10:20 14:1 19:1 
0 0 0.7532869410650758 0 0 0 1:1 10:6 11:1 22:1 
0 0.1964277853835324 0 0 0 0 10:9 13:1 17:1 
0 0 1 0 0 0 1:1 10:5 11:1 22:1 
0 0 0 0.002502390116564608 0.006214999648505097 0.001100928373271929 4:1 10:41 14:1 18:1 
0 0 1 0 0 0 2:1 10:1 12:1 22:1 
0 0 0.01614352367228657 0 0 0 1:1 10:1 11:1 23:1 
0 0 1 0 0 0 2:1 10:2 12:1 22:1 
0 0 0 0 0.01680343470567 0 10:5 11:1 18:1 
0 0 1 0 0 0 2:1 10:2 12:1 22:1 
0 0.1927298781915578 0 0 0 0 10:16 11:1 17:1 
0 0 1 0 0 0.7178244681351412 10:20 14:1 20:1 
0 0.117690824948758 1 0 0 0 10:7 11:1 19:1 
0 0 0 0 0.04341651246072033 0 10:20 11:1 18:1 
0 0 0.9863591905446421 0 0 0 1:1 10:6 11:1 23:1 
0 0 0 0 0.01522266814372069 0 10:19 11:1 17:1 
0 0 0 0.2851628861136708 0 0 10:2 11:1 18:1 
0 0 0 0 0.009314868025132914 0 2:1 10:33 12:1 19:1 
0 0 1 0.4983413254753481 0 0 10:20 14:1 20:1 
0 0 0.6335227971146575 0 0 0 2:1 10:1 12:1 22:1 
0.3565500743300442 0.4770112766451383 0 0 0.752015176712475 0.06907115907131271 10:1 13:1 17:1 
0 0 0.005795619190845391 0 0 0 2:1 10:1 12:1 22:1 
0 0 0.8997425706040422 0 0 0 2:1 10:1 12:1 25:1 
0 0 0 0.02329805633509817 0 0 10:20 12:1 17:1 
0 0 0.6749887055636875 0 0 0 2:1 10:5 12:1 22:1 
0 0 0 0 0.0717639012147315 0.2085149995374662 10:20 14:1 19:1 
0.0295687085452231 0 1 0 0 0 4:1 10:54 14:1 17:1 
0 0 0.5162569919343925 0 0 0 1:1 10:4 11:1 23:1 
0 0 1 0.0321955434704938 0 0 10:2 12:1 19:1 
0.221707890518502 0 0 1 0 0.002843360773355828 10:20 12:1 20:1 
0 0 1 0 0 0 4:0.5 5:0.5 10:16 14:1 17:1 
0 0 1 0 0 0 2:1 10:16 12:1 22:1 
0 0 0 0 0 0.01852528527832619 10:20 13:1 18:1 
0 0 1 0 0 0 2:0.5 10:8 12:1 23:1 
0 0 0 0.06522205933583024 0.3147015075239156 0 10:17 14:1 17:1 
0 0 1 0 0 0 1:1 10:2 11:1 23:1 
0 0 1 0 0 0 2:1 10:2 12:1 22:1 
0 0.03434459841391255 0 0 0 0 10:5 14:1 17:1 
0 0 0 0.2955591951934838 0 0 10:2 14:1 19:1 
0 0 1 0 0 0 3:0.64705882 5:0.35294118 10:17 13:1 18:1 
0 0 0 0 0.02593806033961137 0 10:17 12:1 17:1 
0 0 1 0 0.121696954393999 0.8260294566278993 10:1 12:1 21:1 
0 0.8991674742659604 1 0.4222064740112041 0.6233554629018981 0.8562056532151257 10:1 13:1 19:1 
0.04391553058823956 0 0 0 0 0.1478847200731582 10:20 14:1 17:1 
1 0.2014991569881306 1 1 0.5695027786986214 0 10:20 13:1 20:1 
0 0 1 0 0 0 2:1 10:2 12:1 22:1 
0.0873437019920618 0.2811308772953677 0 0 0 0.00606139976410512 1:1 10:54 11:1 17:1 
0 0 1 0 0 0 2:1 10:7 12:1 22:1 
0 0 1 0 0 0 2:0.66666667 10:3 12:1 23:1 
0.6521207137163569 0 0 0.6284631666596536 0 0.2611545886075113 10:20 11:1 17:1 
0.06706622641820691 0.1586525953589813 0.9525494681163456 0.004342776064710862 0.07749238696768246 0.0474294439898393 3:1 10:1 13:1 22:1 
0 0 0.3695069762988865 0 0 0 3:1 10:5 13:1 22:1 
0 0 1 0 0 0 1:1 10:1 11:1 24:1 
0 0 0 0.002338347073381999 0 0 2:1 10:33 12:1 18:1 
0 0 0 0 0.003729489586723042 0 4:1 10:17 14:1 21:1 
0.503603410524694 0 0 0.6137802994637352 0.2100623100785506 0.3393342493414655 10:20 13:1 17:1 
0 0.1658836328841089 0 0 0 0 10:14 14:1 18:1 
0 0 0.7784844710108995 0 0 0 1:1 10:2 11:1 23:1 
0 0 0 0 0.05456518557360575 0 10:20 12:1 18:1 
0 0 0.4304284048419036 0 0 0 3:0.85 5:0.15 10:20 13:1 19:1 
-0 1 0 0 0 0 6:1 10:8 15:1 16:1 
-0 1 0 0 0 0 6:1 10:10 15:1 22:1 
-0 1 0 1 1 1 6:0.058823529 10:17 15:1 20:1 
-1 1 0 1 1 1 6:0.15 10:20 15:1 21:1 
-0 1 0 1 1 1 6:0.058823529 10:17 15:1 21:1 
-0 1 0 0 0 0 6:0.84210526 10:19 15:1 22:1 
-0 1 0 1 1 1 6:0.44444444 10:18 15:1 20:1 
-0 1 0 0 0 0 6:1 10:1 15:1 21:1 
-0 1 0 0 0 0 6:0.94117647 10:17 15:1 17:1 
-0 1 0 1 1 1 9:0.44444444 10:18 15:1 16:1 
-0 1 0 0 0 0 6:1 10:17 15:1 16:1 
-0 1 0 0 0 0 6:1 10:1 15:1 16:1 
-0 1 0 0 0 0 6:1 10:2 15:1 16:1 
-0 1 0 0 0 0 6:1 10:17 15:1 16:1 
-0 1 0 0 0 0 6:0.85 10:20 15:1 24:1 
-0 1 0 1 1 0 6:0.55 10:20 15:1 21:1 
-0 1 0 0 0 0 6:0.65 10:20 15:1 21:1 
-0 1 0 0 0 0 6:0.75 10:20 15:1 21:1 
-0 1 0 1 1 1 6:0.29411765 10:17 15:1 20:1 
-0 1 0 0 0 0 6:0.71428571 10:7 15:1 20:1 
-1 1 1 1 1 1 6:0.25 10:4 15:1 19:1 
-0 1 0 1 1 1 6:0.15 9:0.85 10:20 15:1 16:1 
-0 1 0 0 0 0 6:0.76470588 8:0.23529412 10:17 15:1 21:1 
-1 1 1 1 1 1 6:0.05 10:20 15:1 20:1 
-0 1 0 0 0 0 6:1 10:18 15:1 16:1 
-0 1 0 0 1 1 6:0.7 10:10 15:1 16:1 
-1 1 1 1 1 1 6:0.33333333 10:3 15:1 22:1 
-0 1 0 0 0 0 6:1 10:12 15:1 16:1 
-0 1 0 0 0 0 6:0.83333333 10:6 15:1 21:1 
-1 1 1 1 1 1 6:0.125 10:8 15:1 20:1 
-0 1 0 1 1 1 6:0.25 10:16 15:1 20:1 
-0 1 0 0 0 0 6:0.64705882 10:17 15:1 21:1 
-0 1 0 0 0 0 6:0.88888889 10:9 15:1 21:1 
-0 1 0 0 0 0 6:0.85 10:20 15:1 18:1 
-0 1 0 0 0 0 6:0.68421053 10:19 15:1 20:1 
-0 1 0 0 0 0 6:0.7 10:20 15:1 22:1 
-0 1 0 0 0 0 6:1 10:17 15:1 16:1 
-0 1 0 1 0 0.840213638209111 6:0.57142857 9:0.071428571 10:14 15:1 20:1 
-0 1 0 0 0 1 6:0.5 9:0.5 10:20 15:1 22:1 
-0.9581479364112081 1 1 1 1 1 6:0.25 10:20 15:1 20:1 
-1 1 1 1 1 1 6:0.38461538 10:13 15:1 17:1 
-0 1 0 0 0 0 6:0.7 10:20 15:1 21:1 
-0.2088114272600857 1 0.1981609662796422 1 1 1 6:0.1 9:0.9 10:20 15:1 16:1 
-1 1 1 1 1 1 6:0.2 10:20 15:1 20:1 
-0 1 0 0 0 0 6:0.89473684 10:19 15:1 17:1 
-0 1 0 1 0 0 6:0.66666667 10:6 15:1 20:1 
-0 1 0 0 0 0 6:1 10:17 15:1 16:1 
-0 1 0 0 0 0 6:1 10:17 15:1 16:1 
-1 1 1 1 1 1 6:0.1 10:20 15:1 17:1 
-1 1 1 1 1 1 8:0.66666667 10:3 15:1 16:1 
-0 1 0 1 1 1 6:0.35 10:20 15:1 21:1 
-1 1 1 0.6822929935356388 0.6360793813456291 0.6703340249326896 6:0.66666667 10:27 15:1 21:1 
-0 1 0 1 1 1 6:0.33333333 9:0.055555556 10:18 15:1 20:1 
-0 1 0 0 0 0 6:1 10:14 15:1 16:1 
-0 1 0 0 0 0 6:1 10:1 15:1 21:1 
-0 1 0 1 0 0 6:0.6 10:5 15:1 20:1 
-0 1 0 0 0 0 6:1 10:16 15:1 16:1 
-0 1 0 0 0 0 6:0.88888889 10:9 15:1 20:1 
-1 1 1 1 1 1 6:0.2 10:10 15:1 20:1 
-0 1 0 0 0 0 6:0.94444444 9:0.055555556 10:18 15:1 19:1 
-0 1 0 0 0 0 6:0.84210526 10:19 15:1 16:1 
-1 1 0 1 1 1 6:0.2 10:15 15:1 21:1 
-0 1 0 1 1 1 6:0.36842105 10:19 15:1 20:1 
-0 1 0 0 0 0 6:1 10:8 15:1 19:1 
-0 1 0 0 0 0 6:1 10:3 15:1 22:1 
-0 1 0 0 0 0 6:1 10:21 15:1 16:1 
-1 1 1 1 0.6158078634435266 1 6:0.35714286 10:14 15:1 19:1 
-0 1 0 0 0 0 6:0.7 10:20 15:1 21:1 
-0 1 0 0 0 0 6:1 10:1 15:1 21:1 
-1 1 1 1 1 1 6:0.5 10:2 15:1 20:1 
-1 1 0 1 1 1 6:0.27272727 10:11 15:1 20:1 
-0 1 0 0 0 0 6:1 10:1 15:1 21:1 
-0 1 0 1 1 0 6:0.55 10:20 15:1 21:1 
-0 1 0 0 0 0 6:1 10:5 15:1 16:1 
-0 1 0 0 0 0 6:1 10:4 15:1 21:1 
